{"learner":{"attributes":{"scikit_learn":"{\"_estimator_type\": \"regressor\"}"},"feature_names":["vikings","fika","stockholm","ikea","abba"],"feature_types":["int","int","int","int","int"],"gradient_booster":{"model":{"gbtree_model_param":{"num_parallel_tree":"1","num_trees":"100"},"iteration_indptr":[0,1,2,3,4,5,6,7,8,9,10,11,12,13,14,15,16,17,18,19,20,21,22,23,24,25,26,27,28,29,30,31,32,33,34,35,36,37,38,39,40,41,42,43,44,45,46,47,48,49,50,51,52,53,54,55,56,57,58,59,60,61,62,63,64,65,66,67,68,69,70,71,72,73,74,75,76,77,78,79,80,81,82,83,84,85,86,87,88,89,90,91,92,93,94,95,96,97,98,99,100],"tree_info":[0,0,0,0,0,0,0,0,0,0,0,0,0,0,0,0,0,0,0,0,0,0,0,0,0,0,0,0,0,0,0,0,0,0,0,0,0,0,0,0,0,0,0,0,0,0,0,0,0,0,0,0,0,0,0,0,0,0,0,0,0,0,0,0,0,0,0,0,0,0,0,0,0,0,0,0,0,0,0,0,0,0,0,0,0,0,0,0,0,0,0,0,0,0,0,0,0,0,0,0],"trees":[{"base_weights":[-5.2870364E-6,6.1044857E1,-9.4987175E1,1.7261496E2,3.059322E1,-7.52101E1,-1.4474289E2,2.3405624E2,1.1227687E2,1.829157E1,8.033406E1,-1.466788E2,-5.395809E1,-1.699398E2,-8.227783E1,3.0517407E2,2.1532033E2,2.3463062E2,7.669533E1,4.0134506E1,-8.826878E0,1.527479E2,6.407418E1,-1.5861266E2,1.00532906E2,-2.7338095E1,-1.0209554E2,-6.529823E1,-1.756571E2,-4.5471344E0,-9.963479E1,5.7347866E1,3.4563687E2,2.3319482E2,1.3573752E2,-1.3344077E1,2.4707643E2,-4.3112484E1,1.068182E2,2.2060509E1,6.75717E1,-1.7339485E1,1.04946785E2,3.2827963E2,1.2221665E2,5.6723404E1,1.4712682E2,-1.6814717E2,-5.5782284E1,-4.9892105E1,2.755296E2,-4.6416096E1,6.3571945E1,-8.771917E1,-5.276142E1,-1.0296545E2,3.5405926E1,-6.1391445E1,-1.6427463E2,-4.468044E1,4.303291E1,-5.008798E1,-1.2002049E2,2.4605925E1,1.07582436E2,6.478168E1,1.0651037E2,5.691863E1,9.310367E0,7.9686356E1,4.907898E0,-1.9789232E1,-4.099338E0,4.2164116E1,-6.1476736E0,1.3161092E1,-4.336601E0,4.025282E1,1.5511754E1,-2.1184067E1,2.4539986E0,8.993388E1,1.7521751E1,1.6260594E2,2.2907898E1,5.0261257E1,2.3771973E0,2.6684307E1,1.2101716E1,2.3577198E1,9.11079E1,-2.1240128E1,-5.173055E1,-3.3552135E1,2.1083885E1,2.63079E1,1.2585593E2,-9.77505E0,-2.8373512E1,-7.608943E0,3.1366304E1,-4.135753E1,-2.1288282E1,-4.4450523E1,-6.216115E0,-3.384614E1,-5.1156826E1,-1.9705225E0,-2.7992104E1,3.6755924E1,7.894776E-1,-1.5988943E1,-2.9407656E-1,-3.9110817E1,-2.1027134E1],"categories":[],"categories_nodes":[],"categories_segments":[],"categories_sizes":[],"default_left":[0,0,0,0,0,0,0,0,0,0,0,0,0,0,0,0,0,0,0,0,0,0,0,0,0,0,0,0,0,0,0,0,0,0,0,0,0,0,0,0,0,0,0,0,0,0,0,0,0,0,0,0,0,0,0,0,0,0,0,0,0,0,0,0,0,0,0,0,0,0,0,0,0,0,0,0,0,0,0,0,0,0,0,0,0,0,0,0,0,0,0,0,0,0,0,0,0,0,0,0,0,0,0,0,0,0,0,0,0,0,0,0,0,0,0],"id":0,"left_children":[1,3,5,7,9,11,13,15,17,19,21,23,25,27,29,31,33,35,37,39,41,43,45,47,49,51,53,55,57,59,61,-1,63,65,67,-1,69,71,73,75,77,79,81,83,85,87,89,91,93,-1,95,97,99,101,-1,103,-1,-1,105,107,109,111,113,-1,-1,-1,-1,-1,-1,-1,-1,-1,-1,-1,-1,-1,-1,-1,-1,-1,-1,-1,-1,-1,-1,-1,-1,-1,-1,-1,-1,-1,-1,-1,-1,-1,-1,-1,-1,-1,-1,-1,-1,-1,-1,-1,-1,-1,-1,-1,-1,-1,-1,-1,-1],"loss_changes":[1.0582223E7,3.7693325E6,6.917065E5,8.560465E5,5.333262E5,7.71257E5,3.03951E5,9.01875E4,5.1313625E5,4.161815E5,1.9391E5,3.6111775E5,5.0593225E5,7.4082E4,8.049703E4,3.542175E4,1.04907E5,1.04781625E5,3.5106494E5,1.9141438E5,3.05932E5,1.26014E5,7.8956125E4,1.004295E5,3.2599916E5,4.4868684E5,1.3412125E5,7.429765E4,1.091625E4,2.4837262E4,4.3480688E4,0E0,2.1878875E4,8.5223E4,1.0717275E5,0E0,1.06897625E5,1.2557336E4,3.3352075E5,1.8858528E5,1.5579956E5,3.9891894E5,1.8198067E5,1.7399319E5,1.4370803E5,6.663247E4,9.4167484E4,3.036875E4,8.559489E4,0E0,7.139753E4,1.3882084E5,1.6666662E5,9.104694E4,0E0,2.6671664E4,0E0,0E0,1.355375E4,1.2359924E4,1.8945816E4,2.468746E3,8.430875E3,0E0,0E0,0E0,0E0,0E0,0E0,0E0,0E0,0E0,0E0,0E0,0E0,0E0,0E0,0E0,0E0,0E0,0E0,0E0,0E0,0E0,0E0,0E0,0E0,0E0,0E0,0E0,0E0,0E0,0E0,0E0,0E0,0E0,0E0,0E0,0E0,0E0,0E0,0E0,0E0,0E0,0E0,0E0,0E0,0E0,0E0,0E0,0E0,0E0,0E0,0E0,0E0],"parents":[2147483647,0,0,1,1,2,2,3,3,4,4,5,5,6,6,7,7,8,8,9,9,10,10,11,11,12,12,13,13,14,14,15,15,16,16,17,17,18,18,19,19,20,20,21,21,22,22,23,23,24,24,25,25,26,26,27,27,28,28,29,29,30,30,32,32,33,33,34,34,36,36,37,37,38,38,39,39,40,40,41,41,42,42,43,43,44,44,45,45,46,46,47,47,48,48,50,50,51,51,52,52,53,53,55,55,58,58,59,59,60,60,61,61,62,62],"right_children":[2,4,6,8,10,12,14,16,18,20,22,24,26,28,30,32,34,36,38,40,42,44,46,48,50,52,54,56,58,60,62,-1,64,66,68,-1,70,72,74,76,78,80,82,84,86,88,90,92,94,-1,96,98,100,102,-1,104,-1,-1,106,108,110,112,114,-1,-1,-1,-1,-1,-1,-1,-1,-1,-1,-1,-1,-1,-1,-1,-1,-1,-1,-1,-1,-1,-1,-1,-1,-1,-1,-1,-1,-1,-1,-1,-1,-1,-1,-1,-1,-1,-1,-1,-1,-1,-1,-1,-1,-1,-1,-1,-1,-1,-1,-1,-1],"split_conditions":[4.3E1,5.6E1,2E0,2E1,8.8E1,2E0,3E0,1E0,4.8E1,3.4E1,3.1E1,6.7E1,5.5E1,4.6E1,5.5E1,1.7E1,1E0,1E0,2.2E1,7.8E1,3E0,8.9E1,2E0,2E0,7.5E1,2E0,7.2E1,2E0,7.8E1,5E1,2E0,5.7347866E1,4.8E1,5.5E1,5.2E1,-1.3344077E1,2E0,5.3E1,3.1E1,2.9E1,3E1,2E0,6.4E1,1E0,3E1,9E1,4.2E1,4.4E1,5.8E1,-4.9892105E1,8E1,8.8E1,7.9E1,7.3E1,-5.276142E1,9.2E1,3.5405926E1,-6.1391445E1,5.2E1,4E0,7.5E1,9.8E1,8.9E1,2.4605925E1,1.07582436E2,6.478168E1,1.0651037E2,5.691863E1,9.310367E0,7.9686356E1,4.907898E0,-1.9789232E1,-4.099338E0,4.2164116E1,-6.1476736E0,1.3161092E1,-4.336601E0,4.025282E1,1.5511754E1,-2.1184067E1,2.4539986E0,8.993388E1,1.7521751E1,1.6260594E2,2.2907898E1,5.0261257E1,2.3771973E0,2.6684307E1,1.2101716E1,2.3577198E1,9.11079E1,-2.1240128E1,-5.173055E1,-3.3552135E1,2.1083885E1,2.63079E1,1.2585593E2,-9.77505E0,-2.8373512E1,-7.608943E0,3.1366304E1,-4.135753E1,-2.1288282E1,-4.4450523E1,-6.216115E0,-3.384614E1,-5.1156826E1,-1.9705225E0,-2.7992104E1,3.6755924E1,7.894776E-1,-1.5988943E1,-2.9407656E-1,-3.9110817E1,-2.1027134E1],"split_indices":[3,2,0,3,2,1,0,4,2,3,3,3,3,3,3,3,0,4,3,2,4,2,4,4,2,4,3,4,2,3,1,0,2,2,2,0,1,2,3,3,3,1,2,0,3,2,3,3,3,0,2,2,2,2,0,2,0,0,3,0,2,2,2,0,0,0,0,0,0,0,0,0,0,0,0,0,0,0,0,0,0,0,0,0,0,0,0,0,0,0,0,0,0,0,0,0,0,0,0,0,0,0,0,0,0,0,0,0,0,0,0,0,0,0,0],"split_type":[0,0,0,0,0,0,0,0,0,0,0,0,0,0,0,0,0,0,0,0,0,0,0,0,0,0,0,0,0,0,0,0,0,0,0,0,0,0,0,0,0,0,0,0,0,0,0,0,0,0,0,0,0,0,0,0,0,0,0,0,0,0,0,0,0,0,0,0,0,0,0,0,0,0,0,0,0,0,0,0,0,0,0,0,0,0,0,0,0,0,0,0,0,0,0,0,0,0,0,0,0,0,0,0,0,0,0,0,0,0,0,0,0,0,0],"sum_hessian":[1.823E3,1.11E3,7.13E2,2.37E2,8.73E2,5.12E2,2.01E2,1.16E2,1.21E2,7.01E2,1.72E2,1.16E2,3.96E2,1.42E2,5.9E1,2.1E1,9.5E1,2.6E1,9.5E1,3.88E2,3.13E2,3E1,1.42E2,1.11E2,5E0,2.56E2,1.4E2,8E0,1.34E2,1.1E1,4.8E1,7E0,1.4E1,7.6E1,1.9E1,1E0,2.5E1,1.9E1,7.6E1,2.35E2,1.53E2,2.92E2,2.1E1,3E0,2.7E1,1.32E2,1E1,1.01E2,1E1,2E0,3E0,2.12E2,4.4E1,1.19E2,2.1E1,7E0,1E0,3.3E1,1.01E2,6E0,5E0,1.5E1,3.3E1,1E0,1.3E1,6.9E1,7E0,1.2E1,7E0,2.3E1,2E0,1E1,9E0,6E1,1.6E1,1.47E2,8.8E1,2.8E1,1.25E2,9.4E1,1.98E2,3E0,1.8E1,1E0,2E0,1.9E1,8E0,4.3E1,8.9E1,8E0,2E0,5E0,9.6E1,7E0,3E0,2E0,1E0,1.66E2,4.6E1,1.4E1,3E1,2.8E1,9.1E1,4E0,3E0,1.3E1,8.8E1,4E0,2E0,1E0,4E0,1.4E1,1E0,2.6E1,7E0],"tree_param":{"num_deleted":"0","num_feature":"5","num_nodes":"115","size_leaf_vector":"1"}},{"base_weights":[3.9029908E-1,4.2199677E1,-6.9845116E1,1.2297515E2,2.0957378E1,-1.2088431E2,-5.7237274E1,1.6748943E2,7.927724E1,-4.397964E0,3.6749966E1,4.7972183E1,-1.2419783E2,-3.8624878E1,-9.635765E1,2.2223712E2,1.5319841E2,1.6688034E2,5.3813057E1,2.357541E1,-4.2997944E1,1.05039696E2,3.0129719E1,2.5022182E1,-1.2640247E2,-5.2430832E1,3.1473219E1,-1.1381971E2,-5.7904922E1,1.8514977E2,1.0285284E2,1.9042755E2,1.1940066E2,-1.1342464E1,1.7620714E2,-3.1373161E1,7.524048E1,4.5900013E1,3.513031E0,-6.6102844E1,1.8348942E1,1.0973712E1,1.5031491E2,2.6155106E1,8.880738E1,-3.418453E1,-1.312932E2,-4.500339E1,-1.0812443E2,1.1049168E2,6.1242585E0,-7.299777E1,-1.2174156E2,2.1479288E1,-7.130396E1,7.127356E1,2.5008867E1,5.1494976E1,1.1695156E2,2.9850498E1,5.8504864E1,5.677653E1,3.9263184E0,-1.4392163E1,-2.9925175E0,3.3336845E1,3.6051626E0,1.669152E1,-8.071573E0,3.4205406E1,-1.5823865E0,-2.7825956E1,-1.2329434E1,4.5943905E1,-5.6910048E0,-6.3336625E0,2.199498E1,-1.7331196E1,5.430254E1,1.6513866E0,1.0470432E1,1.0593037E1,4.2029327E1,-1.8349852E1,2.4265962E0,-4.6592556E1,-3.4291687E1,-2.4932741E1,-1.0556525E1,-2.0275835E1,-4.1152737E1,1.27900986E2,1.7243614E1,7.9813533E0,-1.3654145E1,-3.1825388E1,3.0724268E1,-3.8060806E1,-2.8042059E1,3.1242537E1,-5.6137395E-1,-1.3560938E1,-2.7796377E1],"categories":[],"categories_nodes":[],"categories_segments":[],"categories_sizes":[],"default_left":[0,0,0,0,0,0,0,0,0,0,0,0,0,0,0,0,0,0,0,0,0,0,0,0,0,0,0,0,0,0,0,0,0,0,0,0,0,0,0,0,0,0,0,0,0,0,0,0,0,0,0,0,0,0,0,0,0,0,0,0,0,0,0,0,0,0,0,0,0,0,0,0,0,0,0,0,0,0,0,0,0,0,0,0,0,0,0,0,0,0,0,0,0,0,0,0,0,0,0,0,0,0,0],"id":1,"left_children":[1,3,5,7,9,11,13,15,17,19,21,-1,23,25,27,29,31,33,35,37,39,41,43,-1,45,47,49,51,53,55,-1,57,59,-1,61,63,65,67,69,71,73,75,77,79,81,83,85,87,89,91,93,95,97,99,101,-1,-1,-1,-1,-1,-1,-1,-1,-1,-1,-1,-1,-1,-1,-1,-1,-1,-1,-1,-1,-1,-1,-1,-1,-1,-1,-1,-1,-1,-1,-1,-1,-1,-1,-1,-1,-1,-1,-1,-1,-1,-1,-1,-1,-1,-1,-1,-1],"loss_changes":[5.359121E6,1.9603626E6,4.313005E5,4.4967525E5,3.633484E5,1.4453512E5,3.9529E5,5.749475E4,2.6317006E5,3.7785403E5,2.4955625E5,0E0,7.141625E4,3.6262875E5,1.11587E5,3.49275E4,9.805575E4,5.82075E4,1.7759134E5,9.0759336E4,2.0957275E5,2.0703456E5,1.1685319E5,0E0,5.504575E4,1.2419619E5,1.2351155E5,2.991925E4,6.216086E4,8.1589375E4,0E0,9.7840875E4,6.0343312E4,0E0,5.2860812E4,6.6259336E3,1.7334666E5,6.956155E4,1.05477984E5,6.749116E4,2.0915562E5,3.555347E4,2.2122412E5,8.650356E4,8.2857766E4,9.619549E3,3.32425E4,1.0067544E5,3.312575E4,2.2665286E5,5.197379E4,1.3854884E5,2.491625E3,1.7566797E4,2.3117922E4,0E0,0E0,0E0,0E0,0E0,0E0,0E0,0E0,0E0,0E0,0E0,0E0,0E0,0E0,0E0,0E0,0E0,0E0,0E0,0E0,0E0,0E0,0E0,0E0,0E0,0E0,0E0,0E0,0E0,0E0,0E0,0E0,0E0,0E0,0E0,0E0,0E0,0E0,0E0,0E0,0E0,0E0,0E0,0E0,0E0,0E0,0E0,0E0],"parents":[2147483647,0,0,1,1,2,2,3,3,4,4,5,5,6,6,7,7,8,8,9,9,10,10,12,12,13,13,14,14,15,15,16,16,17,17,18,18,19,19,20,20,21,21,22,22,24,24,25,25,26,26,27,27,28,28,29,29,31,31,32,32,34,34,35,35,36,36,37,37,38,38,39,39,40,40,41,41,42,42,43,43,44,44,45,45,46,46,47,47,48,48,49,49,50,50,51,51,52,52,53,53,54,54],"right_children":[2,4,6,8,10,12,14,16,18,20,22,-1,24,26,28,30,32,34,36,38,40,42,44,-1,46,48,50,52,54,56,-1,58,60,-1,62,64,66,68,70,72,74,76,78,80,82,84,86,88,90,92,94,96,98,100,102,-1,-1,-1,-1,-1,-1,-1,-1,-1,-1,-1,-1,-1,-1,-1,-1,-1,-1,-1,-1,-1,-1,-1,-1,-1,-1,-1,-1,-1,-1,-1,-1,-1,-1,-1,-1,-1,-1,-1,-1,-1,-1,-1,-1,-1,-1,-1,-1],"split_conditions":[4.4E1,5.6E1,7.3E1,2E1,7.8E1,5.1E1,2E0,1E0,4.8E1,3.2E1,3E1,4.7972183E1,1E0,2E0,3E0,5.3E1,1.7E1,1E0,2.2E1,1E0,2E0,2.8E1,2E0,2.5022182E1,4.5E1,9.3E1,4.9E1,5.2E1,5.5E1,5.1E1,1.0285284E2,5.2E1,5.5E1,-1.1342464E1,2E0,5.3E1,2.9E1,3E1,5.7E1,7.2E1,6.4E1,8.6E1,8.1E1,2E0,3.9E1,7E1,2E0,2E0,5.2E1,1E0,8.8E1,5.1E1,2E0,7.5E1,6.7E1,7.127356E1,2.5008867E1,5.1494976E1,1.1695156E2,2.9850498E1,5.8504864E1,5.677653E1,3.9263184E0,-1.4392163E1,-2.9925175E0,3.3336845E1,3.6051626E0,1.669152E1,-8.071573E0,3.4205406E1,-1.5823865E0,-2.7825956E1,-1.2329434E1,4.5943905E1,-5.6910048E0,-6.3336625E0,2.199498E1,-1.7331196E1,5.430254E1,1.6513866E0,1.0470432E1,1.0593037E1,4.2029327E1,-1.8349852E1,2.4265962E0,-4.6592556E1,-3.4291687E1,-2.4932741E1,-1.0556525E1,-2.0275835E1,-4.1152737E1,1.27900986E2,1.7243614E1,7.9813533E0,-1.3654145E1,-3.1825388E1,3.0724268E1,-3.8060806E1,-2.8042059E1,3.1242537E1,-5.6137395E-1,-1.3560938E1,-2.7796377E1],"split_indices":[3,2,2,3,2,2,0,4,2,3,3,0,0,4,0,2,3,4,3,0,4,3,4,0,3,2,3,3,3,2,0,2,2,0,1,2,3,3,2,2,2,2,2,1,3,2,1,1,3,0,2,3,4,2,3,0,0,0,0,0,0,0,0,0,0,0,0,0,0,0,0,0,0,0,0,0,0,0,0,0,0,0,0,0,0,0,0,0,0,0,0,0,0,0,0,0,0,0,0,0,0,0,0],"split_type":[0,0,0,0,0,0,0,0,0,0,0,0,0,0,0,0,0,0,0,0,0,0,0,0,0,0,0,0,0,0,0,0,0,0,0,0,0,0,0,0,0,0,0,0,0,0,0,0,0,0,0,0,0,0,0,0,0,0,0,0,0,0,0,0,0,0,0,0,0,0,0,0,0,0,0,0,0,0,0,0,0,0,0,0,0,0,0,0,0,0,0,0,0,0,0,0,0,0,0,0,0,0,0],"sum_hessian":[1.823E3,1.143E3,6.8E2,2.37E2,9.06E2,1.33E2,5.47E2,1.16E2,1.21E2,3.48E2,5.58E2,1E0,1.32E2,3.72E2,1.75E2,2.1E1,9.5E1,2.6E1,9.5E1,2.02E2,1.46E2,4.8E1,5.1E2,1E0,1.31E2,3.11E2,6.1E1,1.19E2,5.6E1,1.8E1,3E0,4.3E1,5.2E1,1E0,2.5E1,1.9E1,7.6E1,9.5E1,1.07E2,1.06E2,4E1,1.6E1,3.2E1,4.79E2,3.1E1,7E0,1.24E2,2.76E2,3.5E1,1.4E1,4.7E1,2.1E1,9.8E1,8E0,4.8E1,1.1E1,7E0,4.1E1,2E0,4.3E1,9E0,2.3E1,2E0,1E1,9E0,4.8E1,2.8E1,8.4E1,1.1E1,7E0,1E2,5E1,5.6E1,8E0,3.2E1,1.1E1,5E0,4E0,2.8E1,1.43E2,3.36E2,1.6E1,1.5E1,4E0,3E0,4.8E1,7.6E1,5.5E1,2.21E2,1.6E1,1.9E1,1E0,1.3E1,3.4E1,1.3E1,1.8E1,3E0,8E1,1.8E1,1E0,7E0,2.3E1,2.5E1],"tree_param":{"num_deleted":"0","num_feature":"5","num_nodes":"103","size_leaf_vector":"1"}},{"base_weights":[6.155517E-1,3.1334415E1,-4.718455E1,1.0638191E2,1.8963953E1,-4.029145E1,-9.57617E1,1.1249317E2,-4.0644E1,7.469883E1,1.4606939E1,1.01327774E2,-4.2285442E1,-3.8822372E1,-8.186523E1,9.117691E1,1.563348E2,-5.86905E0,-1.546905E1,1.1651393E2,4.1470036E1,-3.9116824E0,2.657056E1,-1.806193E0,2.3069678E2,-7.469519E1,-3.4179436E1,-4.4860477E1,-9.206944E1,1.1677958E2,-9.559391E0,1.028583E2,2.0141882E2,4.1541542E1,1.466668E2,6.2411392E1,-1.5029044E1,1.3347068E1,-2.9164558E1,7.20773E1,2.2076874E1,-1.4775044E1,1.8616343E1,9.4341606E1,-3.0943406E0,9.898286E1,-7.838395E1,-3.693464E1,8.02546E1,2.0366272E1,-6.147944E1,-2.9622248E1,-4.4702126E1,3.966851E1,2.3347616E1,1.0918476E1,-2.835864E1,5.947092E1,2.07144E0,4.2278355E1,9.370386E1,3.104127E1,-5.0969534E0,1.0324595E2,3.5875446E1,-3.3835042E0,2.5932974E1,-2.6362936E1,5.670956E0,-1.1977827E1,1.1543125E1,-9.2877907E-1,3.1902231E1,6.3515277E0,6.997327E1,4.0776352E1,3.765935E0,-7.875676E0,-2.5823343E1,-1.3354789E1,2.4017076E0,5.198672E1,-1.2498411E1,-1.5396387E1,1.8410767E1,-2.4212336E1,-7.678524E0,-4.522852E0,-1.5619426E1],"categories":[],"categories_nodes":[],"categories_segments":[],"categories_sizes":[],"default_left":[0,0,0,0,0,0,0,0,0,0,0,0,0,0,0,0,0,0,0,0,0,0,0,0,0,0,0,0,0,0,0,0,0,0,0,0,0,0,0,0,0,0,0,0,0,0,0,0,0,0,0,0,0,0,0,0,0,0,0,0,0,0,0,0,0,0,0,0,0,0,0,0,0,0,0,0,0,0,0,0,0,0,0,0,0,0,0,0,0],"id":2,"left_children":[1,3,5,7,9,11,13,15,17,19,21,23,25,-1,27,29,31,-1,-1,33,35,37,39,41,43,45,47,49,51,53,55,57,59,61,63,65,-1,67,69,71,73,-1,-1,-1,-1,75,77,79,81,83,85,-1,87,-1,-1,-1,-1,-1,-1,-1,-1,-1,-1,-1,-1,-1,-1,-1,-1,-1,-1,-1,-1,-1,-1,-1,-1,-1,-1,-1,-1,-1,-1,-1,-1,-1,-1,-1,-1],"loss_changes":[2.679776E6,1.0294041E6,2.352225E5,1.4563862E5,2.3081881E5,1.8134194E5,3.05515E4,1.2686125E5,6.025576E2,9.104128E4,1.966186E5,1.2049775E5,1.6006662E5,0E0,2.0414E4,2.6934475E5,9.5007375E4,0E0,0E0,6.1726188E4,7.982798E4,1.52495E5,1.0863053E5,2.1235006E4,8.400672E4,8.655931E4,1.5966288E5,1.8596121E4,1.1386344E4,3.965825E4,8.9344E4,2.1827589E5,1.23734375E5,3.800606E4,7.115922E4,5.941467E4,0E0,1.1864241E5,1.0490195E5,1.2396258E5,8.9098125E4,0E0,0E0,0E0,0E0,7.8714688E3,4.6272562E4,1.6593994E5,1.433281E5,1.4907152E4,6.9042383E3,0E0,9.600615E2,0E0,0E0,0E0,0E0,0E0,0E0,0E0,0E0,0E0,0E0,0E0,0E0,0E0,0E0,0E0,0E0,0E0,0E0,0E0,0E0,0E0,0E0,0E0,0E0,0E0,0E0,0E0,0E0,0E0,0E0,0E0,0E0,0E0,0E0,0E0,0E0],"parents":[2147483647,0,0,1,1,2,2,3,3,4,4,5,5,6,6,7,7,8,8,9,9,10,10,11,11,12,12,14,14,15,15,16,16,19,19,20,20,21,21,22,22,23,23,24,24,25,25,26,26,27,27,28,28,29,29,30,30,31,31,32,32,33,33,34,34,35,35,37,37,38,38,39,39,40,40,45,45,46,46,47,47,48,48,49,49,50,50,52,52],"right_children":[2,4,6,8,10,12,14,16,18,20,22,24,26,-1,28,30,32,-1,-1,34,36,38,40,42,44,46,48,50,52,54,56,58,60,62,64,66,-1,68,70,72,74,-1,-1,-1,-1,76,78,80,82,84,86,-1,88,-1,-1,-1,-1,-1,-1,-1,-1,-1,-1,-1,-1,-1,-1,-1,-1,-1,-1,-1,-1,-1,-1,-1,-1,-1,-1,-1,-1,-1,-1,-1,-1,-1,-1,-1,-1],"split_conditions":[4.3E1,5.2E1,7.2E1,3.1E1,2E1,1E0,7.5E1,1E0,2E0,5.6E1,7.8E1,8.3E1,7.3E1,-3.8822372E1,8E1,5E1,2.2E1,-5.86905E0,-1.546905E1,5.3E1,1E0,3.2E1,3E1,3E0,4.9E1,6E1,6.9E1,2E0,4E0,2E1,2.4E1,1.9E1,5.1E1,1.7E1,1.7E1,5.7E1,-1.5029044E1,5.3E1,3E0,2.8E1,5E0,-1.4775044E1,1.8616343E1,9.4341606E1,-3.0943406E0,5.1E1,4.5E1,2E0,7E1,7.9E1,8.2E1,-2.9622248E1,5E0,3.966851E1,2.3347616E1,1.0918476E1,-2.835864E1,5.947092E1,2.07144E0,4.2278355E1,9.370386E1,3.104127E1,-5.0969534E0,1.0324595E2,3.5875446E1,-3.3835042E0,2.5932974E1,-2.6362936E1,5.670956E0,-1.1977827E1,1.1543125E1,-9.2877907E-1,3.1902231E1,6.3515277E0,6.997327E1,4.0776352E1,3.765935E0,-7.875676E0,-2.5823343E1,-1.3354789E1,2.4017076E0,5.198672E1,-1.2498411E1,-1.5396387E1,1.8410767E1,-2.4212336E1,-7.678524E0,-4.522852E0,-1.5619426E1],"split_indices":[3,2,3,3,3,0,2,0,1,2,2,2,2,0,2,2,3,0,0,2,0,3,3,1,3,2,3,0,0,3,3,3,2,3,3,2,0,2,4,3,4,0,0,0,0,2,3,4,3,2,3,0,0,0,0,0,0,0,0,0,0,0,0,0,0,0,0,0,0,0,0,0,0,0,0,0,0,0,0,0,0,0,0,0,0,0,0,0,0],"split_type":[0,0,0,0,0,0,0,0,0,0,0,0,0,0,0,0,0,0,0,0,0,0,0,0,0,0,0,0,0,0,0,0,0,0,0,0,0,0,0,0,0,0,0,0,0,0,0,0,0,0,0,0,0,0,0,0,0,0,0,0,0,0,0,0,0,0,0,0,0,0,0,0,0,0,0,0,0,0,0,0,0,0,0,0,0,0,0,0,0],"sum_hessian":[1.823E3,1.11E3,7.13E2,1.56E2,9.54E2,6.26E2,8.7E1,1.5E2,6E0,6.8E1,8.86E2,8E0,6.18E2,2.3E1,6.4E1,1.03E2,4.7E1,3E0,3E0,2.9E1,3.9E1,3.48E2,5.38E2,5E0,3E0,1.22E2,4.96E2,1.5E1,4.9E1,8.2E1,2.1E1,2.3E1,2.4E1,9E0,2E1,3.2E1,7E0,2.07E2,1.41E2,4.7E1,4.91E2,3E0,2E0,2E0,1E0,2E0,1.2E2,4.85E2,1.1E1,3E0,1.2E1,4.2E1,7E0,5.7E1,2.5E1,1.4E1,7E0,1.1E1,1.2E1,1.7E1,7E0,4E0,5E0,1E0,1.9E1,8E0,2.4E1,1E1,1.97E2,1.22E2,1.9E1,1.5E1,3.2E1,4.9E2,1E0,1E0,1E0,1.6E1,1.04E2,4.15E2,7E1,6E0,5E0,1E0,2E0,7E0,5E0,2E0,5E0],"tree_param":{"num_deleted":"0","num_feature":"5","num_nodes":"89","size_leaf_vector":"1"}},{"base_weights":[7.036487E-1,2.7173603E1,-2.7535763E1,6.715505E1,1.4014657E1,-1.5901939E1,-5.2017307E1,1.3311285E2,5.8944046E1,1.5773822E1,-2.6887363E1,-5.0487236E1,-1.4267037E0,-4.4449398E1,-6.8368E1,3.981886E1,1.604784E2,6.4729836E1,-1.489265E1,1.0132384E1,4.2109882E1,-5.652843E1,1.3110814E2,-2.5894972E1,1.521349E1,-5.093596E1,4.3977497E1,-2.717623E1,-5.7589085E1,6.421406E1,-1.5982846E1,6.5591995E1,5.9767975E1,8.652732E1,4.7651287E1,-8.469803E1,7.731516E0,5.6895547E0,5.1364967E1,4.9867855E1,-4.1413853E1,-7.23324E1,-3.4621384E1,-6.622292E1,7.389883E1,3.4242542E1,-3.271162E1,7.998647E1,3.7478096E0,-4.517473E1,-9.350291E1,1.9728261E2,-1.576777E1,-2.2948336E1,-6.544389E1,2.874991E1,7.333894E0,1.227248E0,4.3868988E1,4.2924763E1,2.3858316E1,5.2101547E1,1.1638829E1,-3.0794157E1,-4.627581E0,1.5455158E1,-7.8222547E0,4.45475E0,-3.6743464E0,6.422951E1,9.363813E0,3.64751E1,1.179869E1,2.5477543E1,-1.876208E1,-1.9990162E1,-3.491577E1,-4.3446894E0,-1.9611689E1,-2.8550158E1,-1.2501572E0,5.249516E-1,8.799278E1,-1.1985792E1,6.366487E0,-4.296395E0,3.1683779E1,-1.6441504E0,2.8337786E1,-1.1256979E1,-2.1127117E1,-3.0786245E1,-8.728978E0,7.698072E1,2.8984842E0,1.13505E1,-1.5540877E1,4.5029964E0,-1.0751049E1,-2.0235252E1,-3.4554522E0],"categories":[],"categories_nodes":[],"categories_segments":[],"categories_sizes":[],"default_left":[0,0,0,0,0,0,0,0,0,0,0,0,0,0,0,0,0,0,0,0,0,0,0,0,0,0,0,0,0,0,0,0,0,0,0,0,0,0,0,0,0,0,0,0,0,0,0,0,0,0,0,0,0,0,0,0,0,0,0,0,0,0,0,0,0,0,0,0,0,0,0,0,0,0,0,0,0,0,0,0,0,0,0,0,0,0,0,0,0,0,0,0,0,0,0,0,0,0,0,0,0],"id":3,"left_children":[1,3,5,7,9,11,13,15,17,19,-1,21,23,25,27,29,31,33,35,37,39,41,43,45,47,49,51,-1,53,55,-1,57,-1,59,61,63,65,67,69,71,73,75,77,79,-1,81,83,85,87,89,91,93,95,97,99,-1,-1,-1,-1,-1,-1,-1,-1,-1,-1,-1,-1,-1,-1,-1,-1,-1,-1,-1,-1,-1,-1,-1,-1,-1,-1,-1,-1,-1,-1,-1,-1,-1,-1,-1,-1,-1,-1,-1,-1,-1,-1,-1,-1,-1,-1],"loss_changes":[1.3641808E6,4.9465794E5,2.5066356E5,1.18341875E5,1.3085975E5,3.003062E5,3.2103375E4,5.7435875E4,9.024956E4,1.03426E5,0E0,2.0158966E5,1.7302839E5,1.1523656E5,1.5859281E4,1.9318576E4,5.6789188E4,6.8097125E4,2.5923457E4,1.05408E5,8.176616E4,5.704525E4,1.5273306E5,7.1629164E4,1.875948E5,4.0899812E4,1.3134027E5,0E0,1.53681875E4,5.2017266E3,0E0,3.4117098E4,0E0,2.1873562E4,1.1713106E5,3.3901895E3,2.0585938E4,8.5946164E4,1.7696634E5,8.062422E4,3.4671227E4,1.7097656E4,4.48811E4,4.9918926E3,0E0,1.5100677E5,6.1380266E4,9.3348734E4,1.8133423E5,2.9040938E4,9.346344E3,4.203936E4,2.3207387E4,6.8978447E3,4.6343594E3,0E0,0E0,0E0,0E0,0E0,0E0,0E0,0E0,0E0,0E0,0E0,0E0,0E0,0E0,0E0,0E0,0E0,0E0,0E0,0E0,0E0,0E0,0E0,0E0,0E0,0E0,0E0,0E0,0E0,0E0,0E0,0E0,0E0,0E0,0E0,0E0,0E0,0E0,0E0,0E0,0E0,0E0,0E0,0E0,0E0,0E0],"parents":[2147483647,0,0,1,1,2,2,3,3,4,4,5,5,6,6,7,7,8,8,9,9,11,11,12,12,13,13,14,14,15,15,16,16,17,17,18,18,19,19,20,20,21,21,22,22,23,23,24,24,25,25,26,26,28,28,29,29,31,31,33,33,34,34,35,35,36,36,37,37,38,38,39,39,40,40,41,41,42,42,43,43,45,45,46,46,47,47,48,48,49,49,50,50,51,51,52,52,53,53,54,54],"right_children":[2,4,6,8,10,12,14,16,18,20,-1,22,24,26,28,30,32,34,36,38,40,42,44,46,48,50,52,-1,54,56,-1,58,-1,60,62,64,66,68,70,72,74,76,78,80,-1,82,84,86,88,90,92,94,96,98,100,-1,-1,-1,-1,-1,-1,-1,-1,-1,-1,-1,-1,-1,-1,-1,-1,-1,-1,-1,-1,-1,-1,-1,-1,-1,-1,-1,-1,-1,-1,-1,-1,-1,-1,-1,-1,-1,-1,-1,-1,-1,-1,-1,-1,-1,-1],"split_conditions":[3.9E1,5.6E1,5.7E1,1E0,3E0,2E0,7.2E1,4.8E1,2E0,8.8E1,-2.6887363E1,3E0,8.1E1,6.9E1,7.7E1,2E1,1.8E1,4.9E1,2.5E1,2E0,1E2,8.3E1,7.5E1,6.5E1,8.3E1,6.6E1,2E0,-2.717623E1,8E1,1.6E1,-1.5982846E1,1E0,5.9767975E1,1.5E1,1.7E1,1E0,2.8E1,3.4E1,5.7E1,1E0,2E1,2E0,4.6E1,7.1E1,7.389883E1,4E0,3E0,4.3E1,3E0,9.1E1,8.7E1,2E0,2E0,2E0,9.6E1,2.874991E1,7.333894E0,1.227248E0,4.3868988E1,4.2924763E1,2.3858316E1,5.2101547E1,1.1638829E1,-3.0794157E1,-4.627581E0,1.5455158E1,-7.8222547E0,4.45475E0,-3.6743464E0,6.422951E1,9.363813E0,3.64751E1,1.179869E1,2.5477543E1,-1.876208E1,-1.9990162E1,-3.491577E1,-4.3446894E0,-1.9611689E1,-2.8550158E1,-1.2501572E0,5.249516E-1,8.799278E1,-1.1985792E1,6.366487E0,-4.296395E0,3.1683779E1,-1.6441504E0,2.8337786E1,-1.1256979E1,-2.1127117E1,-3.0786245E1,-8.728978E0,7.698072E1,2.8984842E0,1.13505E1,-1.5540877E1,4.5029964E0,-1.0751049E1,-2.0235252E1,-3.4554522E0],"split_indices":[3,2,3,4,1,1,3,2,1,2,0,4,2,3,2,3,3,2,3,4,2,2,2,2,2,3,1,0,2,3,0,0,0,3,3,0,3,3,2,0,3,0,3,2,0,4,1,3,1,2,2,0,0,0,3,0,0,0,0,0,0,0,0,0,0,0,0,0,0,0,0,0,0,0,0,0,0,0,0,0,0,0,0,0,0,0,0,0,0,0,0,0,0,0,0,0,0,0,0,0,0],"split_type":[0,0,0,0,0,0,0,0,0,0,0,0,0,0,0,0,0,0,0,0,0,0,0,0,0,0,0,0,0,0,0,0,0,0,0,0,0,0,0,0,0,0,0,0,0,0,0,0,0,0,0,0,0,0,0,0,0,0,0,0,0,0,0,0,0,0,0,0,0,0,0,0,0,0,0,0,0,0,0,0,0,0,0,0,0,0,0,0,0,0,0,0,0,0,0,0,0,0,0,0,0],"sum_hessian":[1.823E3,9.41E2,8.82E2,2.32E2,7.09E2,5.99E2,2.83E2,2.4E1,2.08E2,6.98E2,1.1E1,1.76E2,4.23E2,1.96E2,8.7E1,6E0,1.8E1,1.93E2,1.5E1,5.76E2,1.22E2,1.71E2,5E0,1.71E2,2.52E2,1.83E2,1.3E1,2.6E1,6.1E1,5E0,1E0,6E0,1.2E1,8.3E1,1.1E2,3E0,1.2E1,5.21E2,5.5E1,1.12E2,1E1,9.8E1,7.3E1,2E0,3E0,1.7E1,1.54E2,3.7E1,2.15E2,1.63E2,2E1,3E0,1E1,1.2E1,4.9E1,2E0,3E0,4E0,2E0,7E0,7.6E1,6E0,1.04E2,2E0,1E0,5E0,7E0,3.45E2,1.76E2,5E0,5E1,1.3E1,9.9E1,1E0,9E0,8.9E1,9E0,4.5E1,2.8E1,1E0,1E0,1.6E1,1E0,1.36E2,1.8E1,8E0,2.9E1,1.96E2,1.9E1,1.27E2,3.6E1,1.7E1,3E0,2E0,1E0,4E0,6E0,3E0,9E0,4.7E1,2E0],"tree_param":{"num_deleted":"0","num_feature":"5","num_nodes":"101","size_leaf_vector":"1"}},{"base_weights":[7.0037836E-1,1.5481185E1,-2.6341562E1,4.346135E1,6.3152194E0,-1.8686832E1,-4.4040516E1,9.817761E1,3.8175327E1,-1.7459623E1,1.3054887E1,-4.231313E1,-7.949668E0,-5.4369434E1,-1.761622E1,7.629809E1,5.8191185E1,5.1295425E1,2.286053E1,5.6850887E1,-2.2587067E1,1.0471279E1,4.410434E1,-4.9263854E0,-4.774431E1,5.308054E0,-3.6527473E1,-5.901356E1,-3.1915598E1,-3.2093663E0,-3.4116077E1,9.918273E1,2.3852108E1,3.7069206E1,8.14532E1,-4.44665E1,3.460215E1,-1.7640175E1,8.322393E1,-3.4907722E1,1.5635312E-1,1.3399872E1,-1.9820415E1,3.049246E1,1.4564867E2,-7.646368E1,5.4051975E1,-5.3173584E1,-8.112702E0,-3.291382E0,4.5223637E1,-2.6402524E0,-4.9198513E1,-6.554752E1,-2.0524233E1,3.6306458E1,-4.2873943E1,-1.3037431E1,5.0504055E1,-2.3960216E0,-4.1554375E1,4.5077015E1,5.80417E0,-2.8235302E1,3.4037254E1,1.8976145E1,8.702577E-1,3.0161242E1,1.3813587E0,2.462452E1,-1.6817116E1,8.22186E0,5.277549E1,3.1219925E1,-1.878013E1,-3.4594212E0,-1.7909216E1,1.3081703E1,-7.7130184E0,2.8907268E0,1.0925373E1,1.0156298E1,-1.7964745E1,1.4463882E1,-1.0048737E1,5.5860344E1,-8.567052E0,-4.6235847E0,-2.4650595E1,3.6739478E0,3.7244987E1,-1.8785517E1,-8.943178E0,8.469998E0,-1.1855663E1,-1.9000709E0,1.4443953E1,1.3785739E0,3.6900505E1,-1.3677683E1,8.35024E0,-1.9343163E1,-1.0149402E1,-3.4253155E1,-1.778297E1,5.457855E0,-2.5189302E1,-8.969084E0,-2.6640766E1,1.0037778E1,-6.073096E0,1.8323936E1,1.2301712E0,4.496494E0,-1.3397654E1,-1.829201E1,-7.474192E0],"categories":[],"categories_nodes":[],"categories_segments":[],"categories_sizes":[],"default_left":[0,0,0,0,0,0,0,0,0,0,0,0,0,0,0,0,0,0,0,0,0,0,0,0,0,0,0,0,0,0,0,0,0,0,0,0,0,0,0,0,0,0,0,0,0,0,0,0,0,0,0,0,0,0,0,0,0,0,0,0,0,0,0,0,0,0,0,0,0,0,0,0,0,0,0,0,0,0,0,0,0,0,0,0,0,0,0,0,0,0,0,0,0,0,0,0,0,0,0,0,0,0,0,0,0,0,0,0,0,0,0,0,0,0,0,0,0],"id":4,"left_children":[1,3,5,7,9,11,13,15,17,19,21,23,25,27,29,31,-1,33,35,37,39,41,43,45,47,49,51,53,55,57,59,61,63,65,67,69,71,-1,73,75,77,79,81,83,85,87,89,91,93,95,97,99,101,103,105,-1,107,109,111,113,115,-1,-1,-1,-1,-1,-1,-1,-1,-1,-1,-1,-1,-1,-1,-1,-1,-1,-1,-1,-1,-1,-1,-1,-1,-1,-1,-1,-1,-1,-1,-1,-1,-1,-1,-1,-1,-1,-1,-1,-1,-1,-1,-1,-1,-1,-1,-1,-1,-1,-1,-1,-1,-1,-1,-1,-1],"loss_changes":[7.294636E5,3.0235447E5,8.656206E4,8.0418375E4,1.4283666E5,1.1432672E5,5.19915E4,3.759803E4,5.2476125E4,7.634561E4,5.5210562E4,2.8395422E4,1.1840341E5,1.261125E4,1.3202328E4,2.403886E4,0E0,5.8332062E4,1.0035467E5,4.454467E4,5.184503E4,5.721872E4,6.8815914E4,8.42969E4,2.6034656E4,7.3604664E4,4.2379344E4,2.7324344E4,4.8763047E4,1.7023312E4,6.034959E3,5.8255688E4,9.5244195E4,8.839031E4,6.5534094E4,3.2469773E4,1.0398746E5,0E0,3.994736E4,6.8850516E4,7.5297055E4,5.042164E4,1.2459558E5,5.6042254E4,4.7704086E4,1.8683047E3,3.0714877E4,2.1964469E4,1.9379584E4,2.8002559E4,1.1951466E5,3.7919242E4,1.4723547E4,2.2812531E4,4.5739438E4,0E0,1.2245457E4,9.7241045E3,2.20329E3,5.077627E3,5.2668477E3,0E0,0E0,0E0,0E0,0E0,0E0,0E0,0E0,0E0,0E0,0E0,0E0,0E0,0E0,0E0,0E0,0E0,0E0,0E0,0E0,0E0,0E0,0E0,0E0,0E0,0E0,0E0,0E0,0E0,0E0,0E0,0E0,0E0,0E0,0E0,0E0,0E0,0E0,0E0,0E0,0E0,0E0,0E0,0E0,0E0,0E0,0E0,0E0,0E0,0E0,0E0,0E0,0E0,0E0,0E0,0E0],"parents":[2147483647,0,0,1,1,2,2,3,3,4,4,5,5,6,6,7,7,8,8,9,9,10,10,11,11,12,12,13,13,14,14,15,15,17,17,18,18,19,19,20,20,21,21,22,22,23,23,24,24,25,25,26,26,27,27,28,28,29,29,30,30,31,31,32,32,33,33,34,34,35,35,36,36,38,38,39,39,40,40,41,41,42,42,43,43,44,44,45,45,46,46,47,47,48,48,49,49,50,50,51,51,52,52,53,53,54,54,56,56,57,57,58,58,59,59,60,60],"right_children":[2,4,6,8,10,12,14,16,18,20,22,24,26,28,30,32,-1,34,36,38,40,42,44,46,48,50,52,54,56,58,60,62,64,66,68,70,72,-1,74,76,78,80,82,84,86,88,90,92,94,96,98,100,102,104,106,-1,108,110,112,114,116,-1,-1,-1,-1,-1,-1,-1,-1,-1,-1,-1,-1,-1,-1,-1,-1,-1,-1,-1,-1,-1,-1,-1,-1,-1,-1,-1,-1,-1,-1,-1,-1,-1,-1,-1,-1,-1,-1,-1,-1,-1,-1,-1,-1,-1,-1,-1,-1,-1,-1,-1,-1,-1,-1,-1,-1],"split_conditions":[4.5E1,5.8E1,2E0,1E0,7.3E1,7.6E1,3E0,5.4E1,5.2E1,1.8E1,9.5E1,6.6E1,8.8E1,2E0,6.7E1,1.9E1,5.8191185E1,1E0,5.3E1,1.7E1,2E0,9.1E1,2E0,2E0,3E0,2E0,5E1,9.2E1,4.6E1,6.5E1,2E0,5.1E1,5E1,4.7E1,2.9E1,1.7E1,3E0,-1.7640175E1,6.4E1,2.9E1,6.7E1,8.8E1,3.6E1,4.1E1,4.3E1,1E0,6.5E1,7.3E1,7.2E1,6.9E1,8.4E1,9.1E1,5.7E1,5.1E1,9.7E1,3.6306458E1,9.1E1,7.5E1,4E0,8.3E1,8E1,4.5077015E1,5.80417E0,-2.8235302E1,3.4037254E1,1.8976145E1,8.702577E-1,3.0161242E1,1.3813587E0,2.462452E1,-1.6817116E1,8.22186E0,5.277549E1,3.1219925E1,-1.878013E1,-3.4594212E0,-1.7909216E1,1.3081703E1,-7.7130184E0,2.8907268E0,1.0925373E1,1.0156298E1,-1.7964745E1,1.4463882E1,-1.0048737E1,5.5860344E1,-8.567052E0,-4.6235847E0,-2.4650595E1,3.6739478E0,3.7244987E1,-1.8785517E1,-8.943178E0,8.469998E0,-1.1855663E1,-1.9000709E0,1.4443953E1,1.3785739E0,3.6900505E1,-1.3677683E1,8.35024E0,-1.9343163E1,-1.0149402E1,-3.4253155E1,-1.778297E1,5.457855E0,-2.5189302E1,-8.969084E0,-2.6640766E1,1.0037778E1,-6.073096E0,1.8323936E1,1.2301712E0,4.496494E0,-1.3397654E1,-1.829201E1,-7.474192E0],"split_indices":[3,2,0,4,2,2,0,2,2,3,2,2,2,4,3,3,0,0,2,3,1,2,4,1,1,4,3,2,3,3,1,2,2,2,3,3,4,0,2,3,2,2,3,3,3,4,2,2,2,3,2,2,3,3,2,0,2,2,0,3,3,0,0,0,0,0,0,0,0,0,0,0,0,0,0,0,0,0,0,0,0,0,0,0,0,0,0,0,0,0,0,0,0,0,0,0,0,0,0,0,0,0,0,0,0,0,0,0,0,0,0,0,0,0,0,0,0],"split_type":[0,0,0,0,0,0,0,0,0,0,0,0,0,0,0,0,0,0,0,0,0,0,0,0,0,0,0,0,0,0,0,0,0,0,0,0,0,0,0,0,0,0,0,0,0,0,0,0,0,0,0,0,0,0,0,0,0,0,0,0,0,0,0,0,0,0,0,0,0,0,0,0,0,0,0,0,0,0,0,0,0,0,0,0,0,0,0,0,0,0,0,0,0,0,0,0,0,0,0,0,0,0,0,0,0,0,0,0,0,0,0,0,0,0,0,0,0],"sum_hessian":[1.823E3,1.179E3,6.44E2,2.9E2,8.89E2,4.51E2,1.93E2,2.4E1,2.66E2,1.96E2,6.93E2,1.4E2,3.11E2,1.38E2,5.5E1,2.1E1,3E0,1.42E2,1.24E2,1.2E1,1.84E2,6.41E2,5.2E1,1.8E1,1.22E2,2.13E2,9.8E1,1.13E2,2.5E1,3E1,2.5E1,1.4E1,7E0,9.8E1,4.4E1,1.8E1,1.06E2,2E0,1E1,1.19E2,6.5E1,5.85E2,5.6E1,4.7E1,5E0,8E0,1E1,1.07E2,1.5E1,1.76E2,3.7E1,2.7E1,7.1E1,9.6E1,1.7E1,1E0,2.4E1,2.6E1,4E0,5E0,2E1,8E0,6E0,3E0,4E0,5.5E1,4.3E1,3.5E1,9E0,1E0,1.7E1,1.02E2,4E0,9E0,1E0,6.2E1,5.7E1,2.4E1,4.1E1,5.04E2,8.1E1,2.4E1,3.2E1,3.7E1,1E1,4E0,1E0,1E0,7E0,7E0,3E0,7.5E1,3.2E1,7E0,8E0,1.67E2,9E0,2.5E1,1.2E1,1.1E1,1.6E1,3.4E1,3.7E1,9E0,8.7E1,1.1E1,6E0,2E1,4E0,3E0,2.3E1,3E0,1E0,4E0,1E0,8E0,1.2E1],"tree_param":{"num_deleted":"0","num_feature":"5","num_nodes":"117","size_leaf_vector":"1"}},{"base_weights":[5.921833E-1,1.1066986E1,-1.857194E1,3.4491344E1,5.1121144E0,7.289831E1,-1.9544897E1,5.4097713E1,2.2706854E1,-3.8953648E0,1.1971814E1,-3.980368E1,1.6737573E2,-1.6236277E1,-3.832019E1,4.710483E1,7.165762E1,-1.7834411E0,3.4137123E1,1.0325484E1,-1.948186E1,8.56002E0,3.9352383E1,-1.4522435E1,-2.0985558E0,3.477019E1,8.4778854E1,-1.7915184E1,1.1535902E2,-4.1716526E1,-1.5690219E1,5.1983757E1,-6.712879E1,6.674064E1,-1.4793184E1,2.2647636E2,2.8086084E1,2.6532416E0,7.095352E1,-2.4615913E1,6.08638E1,-7.063701E0,1.9202421E1,1.7165172E2,2.1136387E1,1.625093E1,-6.043442E-1,-3.3627193E1,-1.3139482E1,2.1236203E2,-1.0483746E1,-5.1359104E1,-3.604909E1,-3.876368E1,-2.5844665E0,9.388659E0,2.1294582E1,-4.026577E1,2.0121374E1,-2.2943064E1,3.816779E1,2.8496513E0,-1.4313078E1,1.7909185E1,8.400519E1,1.1778904E1,-5.7430873E0,1.9655498E0,-1.4131224E1,4.9272243E1,9.219983E0,-1.1343921E1,-9.238244E-1,6.1262737E1,-1.0900501E1,2.9111462E0,-6.322636E0,5.6412884E1,4.088154E0,5.9986004E1,2.7630615E-1,1.3684248E1,-2.2941282E1,-1.1443488E1,3.6281457E0,-7.1282864E-1,-7.875015E0,2.3460114E0,8.3380806E1,8.747077E0,-1.9410862E1,-9.584824E0,-1.9815266E1,-1.2979663E1,-7.697619E0,-7.0830464E-1,-1.4182229E1,1.0984433E1,-5.0883374E0],"categories":[],"categories_nodes":[],"categories_segments":[],"categories_sizes":[],"default_left":[0,0,0,0,0,0,0,0,0,0,0,0,0,0,0,0,0,0,0,0,0,0,0,0,0,0,0,0,0,0,0,0,0,0,0,0,0,0,0,0,0,0,0,0,0,0,0,0,0,0,0,0,0,0,0,0,0,0,0,0,0,0,0,0,0,0,0,0,0,0,0,0,0,0,0,0,0,0,0,0,0,0,0,0,0,0,0,0,0,0,0,0,0,0,0,0,0,0,0],"id":5,"left_children":[1,3,5,7,9,11,13,15,17,19,21,23,25,27,29,31,-1,33,35,37,39,41,43,-1,-1,45,-1,47,49,51,53,55,57,59,61,63,65,67,69,71,73,75,77,79,81,-1,-1,83,85,87,89,91,93,95,97,-1,-1,-1,-1,-1,-1,-1,-1,-1,-1,-1,-1,-1,-1,-1,-1,-1,-1,-1,-1,-1,-1,-1,-1,-1,-1,-1,-1,-1,-1,-1,-1,-1,-1,-1,-1,-1,-1,-1,-1,-1,-1,-1,-1],"loss_changes":[3.6635603E5,1.6442075E5,5.882764E4,5.3992844E4,5.8251496E4,8.119671E4,3.907272E4,1.0373766E5,4.2330406E4,9.063566E4,4.9641156E4,7.905703E2,5.1289562E4,1.2247694E5,6.6470625E3,5.1977953E4,0E0,4.466986E4,1.13515945E5,9.9354484E4,8.193552E4,7.94483E4,1.3855978E5,0E0,0E0,2.2499456E3,0E0,4.0002484E4,8.7676234E4,2.6297344E3,4.1333477E3,3.0793844E4,4.50164E4,7.90303E4,3.4037332E4,1.0072234E4,5.4067812E4,3.7359453E4,8.5001234E4,5.218014E4,1.7461588E5,4.578333E4,2.647743E5,3.3639516E4,1.3011628E5,0E0,0E0,2.6280906E4,5.8499984E4,5.1477062E4,1.0483666E4,5.8742734E3,3.0138438E3,1.4373931E3,6.256569E3,0E0,0E0,0E0,0E0,0E0,0E0,0E0,0E0,0E0,0E0,0E0,0E0,0E0,0E0,0E0,0E0,0E0,0E0,0E0,0E0,0E0,0E0,0E0,0E0,0E0,0E0,0E0,0E0,0E0,0E0,0E0,0E0,0E0,0E0,0E0,0E0,0E0,0E0,0E0,0E0,0E0,0E0,0E0,0E0],"parents":[2147483647,0,0,1,1,2,2,3,3,4,4,5,5,6,6,7,7,8,8,9,9,10,10,11,11,12,12,13,13,14,14,15,15,17,17,18,18,19,19,20,20,21,21,22,22,25,25,27,27,28,28,29,29,30,30,31,31,32,32,33,33,34,34,35,35,36,36,37,37,38,38,39,39,40,40,41,41,42,42,43,43,44,44,47,47,48,48,49,49,50,50,51,51,52,52,53,53,54,54],"right_children":[2,4,6,8,10,12,14,16,18,20,22,24,26,28,30,32,-1,34,36,38,40,42,44,-1,-1,46,-1,48,50,52,54,56,58,60,62,64,66,68,70,72,74,76,78,80,82,-1,-1,84,86,88,90,92,94,96,98,-1,-1,-1,-1,-1,-1,-1,-1,-1,-1,-1,-1,-1,-1,-1,-1,-1,-1,-1,-1,-1,-1,-1,-1,-1,-1,-1,-1,-1,-1,-1,-1,-1,-1,-1,-1,-1,-1,-1,-1,-1,-1,-1,-1],"split_conditions":[4.5E1,5.6E1,1E0,1.9E1,2E0,3E0,7E1,5.5E1,2.2E1,3.2E1,2E0,8.2E1,8.3E1,6.9E1,4E0,5.4E1,7.165762E1,1E0,2.3E1,8.6E1,3E0,8.2E1,6.4E1,-1.4522435E1,-2.0985558E0,7.2E1,8.4778854E1,2E0,2E0,2E0,7.7E1,4.7E1,1E0,5E1,1E0,1E0,2E0,8.2E1,8.9E1,8.6E1,4E0,3.4E1,2.9E1,6E0,3E0,1.625093E1,-6.043442E-1,3E0,5.5E1,7.6E1,3E0,7.6E1,8.2E1,7.2E1,2E0,9.388659E0,2.1294582E1,-4.026577E1,2.0121374E1,-2.2943064E1,3.816779E1,2.8496513E0,-1.4313078E1,1.7909185E1,8.400519E1,1.1778904E1,-5.7430873E0,1.9655498E0,-1.4131224E1,4.9272243E1,9.219983E0,-1.1343921E1,-9.238244E-1,6.1262737E1,-1.0900501E1,2.9111462E0,-6.322636E0,5.6412884E1,4.088154E0,5.9986004E1,2.7630615E-1,1.3684248E1,-2.2941282E1,-1.1443488E1,3.6281457E0,-7.1282864E-1,-7.875015E0,2.3460114E0,8.3380806E1,8.747077E0,-1.9410862E1,-9.584824E0,-1.9815266E1,-1.2979663E1,-7.697619E0,-7.0830464E-1,-1.4182229E1,1.0984433E1,-5.0883374E0],"split_indices":[3,2,0,3,1,1,3,2,3,3,4,2,2,3,0,2,0,4,3,2,4,2,2,0,0,2,0,1,0,0,3,2,0,2,0,0,4,2,2,2,4,3,3,4,4,0,0,0,3,2,1,3,3,3,1,0,0,0,0,0,0,0,0,0,0,0,0,0,0,0,0,0,0,0,0,0,0,0,0,0,0,0,0,0,0,0,0,0,0,0,0,0,0,0,0,0,0,0,0],"split_type":[0,0,0,0,0,0,0,0,0,0,0,0,0,0,0,0,0,0,0,0,0,0,0,0,0,0,0,0,0,0,0,0,0,0,0,0,0,0,0,0,0,0,0,0,0,0,0,0,0,0,0,0,0,0,0,0,0,0,0,0,0,0,0,0,0,0,0,0,0,0,0,0,0,0,0,0,0,0,0,0,0,0,0,0,0,0,0,0,0,0,0,0,0,0,0,0,0,0,0],"sum_hessian":[1.823E3,1.179E3,6.44E2,2.38E2,9.41E2,6E0,6.38E2,8.8E1,1.5E2,4.07E2,5.34E2,3E0,3E0,5.44E2,9.4E1,8.6E1,2E0,4.8E1,1.02E2,2.13E2,1.94E2,4.76E2,5.8E1,2E0,1E0,2E0,1E0,5.38E2,6E0,8.1E1,1.3E1,8.3E1,3E0,7E0,4.1E1,2E0,1E2,1.9E2,2.3E1,1.83E2,1.1E1,1.93E2,2.83E2,6E0,5.2E1,1E0,1E0,1.24E2,4.14E2,3E0,3E0,2.7E1,5.4E1,4E0,9E0,4.1E1,4.2E1,2E0,1E0,2E0,5E0,2.4E1,1.7E1,1E0,1E0,8.1E1,1.9E1,1.77E2,1.3E1,6E0,1.7E1,1.13E2,7E1,4E0,7E0,8.8E1,1.05E2,8E0,2.75E2,5E0,1E0,4.2E1,1E1,1.13E2,1.1E1,2.28E2,1.86E2,1E0,2E0,2E0,1E0,1.3E1,1.4E1,3E1,2.4E1,1E0,3E0,2E0,7E0],"tree_param":{"num_deleted":"0","num_feature":"5","num_nodes":"99","size_leaf_vector":"1"}},{"base_weights":[6.721027E-1,7.0336733E0,-1.5467371E1,2.2875618E1,2.5027223E0,-1.103972E1,-2.353218E1,2.4747993E1,2.046042E1,-1.4259298E1,7.3522797E0,-8.702943E0,-3.9667637E1,-3.047189E1,-6.953732E0,1.8830894E1,9.200854E1,1.0581622E1,-2.4169308E1,4.8653474E0,3.289818E1,-1.0959371E1,9.085611E1,-4.3010544E1,-8.161214E-1,-7.2118866E1,-2.7832539E1,7.040563E1,-1.1201362E1,5.4319107E1,1.5389994E1,3.0054815E1,7.670645E0,3.493516E1,-5.150004E1,-7.131752E1,-1.4769518E1,6.0677795E0,-3.1941948E1,1.198941E1,7.2473755E1,-2.8914394E1,-6.2592645E0,-6.2107267E0,6.670464E1,-2.5303759E1,-1.6405413E1,-6.3362736E-1,2.6637268E-1,-2.3873375E1,-4.1046915E0,9.11864E1,-3.1599289E1,2.8958502E1,2.724035E0,-3.1056944E1,-3.2773845E0,2.8578966E0,2.416791E1,4.1852975E0,2.1691137E1,1.299989E1,-1.3785767E1,-1.856429E1,2.0303486E1,-1.669233E1,-4.4264008E1,1.9241379E1,-6.8380632E0,1.5664477E0,3.6797226E1,-3.967994E0,-1.9613943E1,3.1832306E1,-5.224557E-1,6.2701805E1,1.2904943E1,-1.1441414E1,9.199522E0,-8.1137764E-1,-1.2553389E1,-1.28710375E1,2.108403E1,-1.602863E1,1.118166E1,-8.86697E0,6.80123E1,-1.0610817E1,-6.3401294E0,-1.404312E1,-3.4264116E0,4.444673E0,-3.5602276E0],"categories":[],"categories_nodes":[],"categories_segments":[],"categories_sizes":[],"default_left":[0,0,0,0,0,0,0,0,0,0,0,0,0,0,0,0,0,0,0,0,0,0,0,0,0,0,0,0,0,0,0,0,0,0,0,0,0,0,0,0,0,0,0,0,0,0,0,0,0,0,0,0,0,0,0,0,0,0,0,0,0,0,0,0,0,0,0,0,0,0,0,0,0,0,0,0,0,0,0,0,0,0,0,0,0,0,0,0,0,0,0,0,0],"id":6,"left_children":[1,3,5,7,9,11,13,-1,15,17,19,21,23,25,27,29,31,33,35,37,39,41,43,45,47,49,51,53,55,57,59,-1,-1,61,63,65,67,69,71,73,75,77,79,81,-1,83,-1,-1,-1,-1,-1,85,87,-1,-1,89,91,-1,-1,-1,-1,-1,-1,-1,-1,-1,-1,-1,-1,-1,-1,-1,-1,-1,-1,-1,-1,-1,-1,-1,-1,-1,-1,-1,-1,-1,-1,-1,-1,-1,-1,-1,-1],"loss_changes":[1.8738325E5,9.3901555E4,1.8165633E4,4.021278E4,8.293771E4,2.2065293E4,2.0727133E4,0E0,3.1029055E4,5.662954E4,5.0092883E4,7.0861195E4,3.2118281E3,1.2062633E4,1.8861305E4,3.286679E4,6.969883E2,1.015851E5,7.162874E4,3.2148291E4,5.7054438E4,2.5558125E4,9.0726016E4,3.3706406E3,8.500459E0,1.9623594E3,5.7575797E4,3.9294756E3,8.2369795E3,2.7441898E4,1.9711762E4,0E0,0E0,3.459666E4,2.7694441E4,2.4055375E4,8.883737E4,6.8427375E4,1.3528633E4,6.0924363E4,8.753415E4,3.579053E4,3.0624945E4,1.7048545E4,0E0,2.135085E4,0E0,0E0,0E0,0E0,0E0,7.215366E4,3.947789E3,0E0,0E0,4.105282E3,6.237174E3,0E0,0E0,0E0,0E0,0E0,0E0,0E0,0E0,0E0,0E0,0E0,0E0,0E0,0E0,0E0,0E0,0E0,0E0,0E0,0E0,0E0,0E0,0E0,0E0,0E0,0E0,0E0,0E0,0E0,0E0,0E0,0E0,0E0,0E0,0E0,0E0],"parents":[2147483647,0,0,1,1,2,2,3,3,4,4,5,5,6,6,8,8,9,9,10,10,11,11,12,12,13,13,14,14,15,15,16,16,17,17,18,18,19,19,20,20,21,21,22,22,23,23,24,24,25,25,26,26,27,27,28,28,29,29,30,30,33,33,34,34,35,35,36,36,37,37,38,38,39,39,40,40,41,41,42,42,43,43,45,45,51,51,52,52,55,55,56,56],"right_children":[2,4,6,8,10,12,14,-1,16,18,20,22,24,26,28,30,32,34,36,38,40,42,44,46,48,50,52,54,56,58,60,-1,-1,62,64,66,68,70,72,74,76,78,80,82,-1,84,-1,-1,-1,-1,-1,86,88,-1,-1,90,92,-1,-1,-1,-1,-1,-1,-1,-1,-1,-1,-1,-1,-1,-1,-1,-1,-1,-1,-1,-1,-1,-1,-1,-1,-1,-1,-1,-1,-1,-1,-1,-1,-1,-1,-1,-1],"split_conditions":[4.9E1,5.8E1,2E0,1.5E1,7.3E1,7.2E1,3E0,2.4747993E1,4E0,1E0,2E0,6.9E1,9.2E1,5.1E1,7.5E1,1E0,8E0,6.6E1,6.2E1,9.9E1,4.2E1,2E0,7.6E1,7.6E1,3E0,3E0,5.2E1,4E0,8.1E1,1.8E1,4E1,3.0054815E1,7.670645E0,2E0,4E0,3E0,6.4E1,9.8E1,4E1,7.4E1,1E0,2E0,9.4E1,7.1E1,6.670464E1,7.5E1,-1.6405413E1,-6.3362736E-1,2.6637268E-1,-2.3873375E1,-4.1046915E0,9.2E1,7.5E1,2.8958502E1,2.724035E0,7.3E1,2E0,2.8578966E0,2.416791E1,4.1852975E0,2.1691137E1,1.299989E1,-1.3785767E1,-1.856429E1,2.0303486E1,-1.669233E1,-4.4264008E1,1.9241379E1,-6.8380632E0,1.5664477E0,3.6797226E1,-3.967994E0,-1.9613943E1,3.1832306E1,-5.224557E-1,6.2701805E1,1.2904943E1,-1.1441414E1,9.199522E0,-8.1137764E-1,-1.2553389E1,-1.28710375E1,2.108403E1,-1.602863E1,1.118166E1,-8.86697E0,6.80123E1,-1.0610817E1,-6.3401294E0,-1.404312E1,-3.4264116E0,4.444673E0,-3.5602276E0],"split_indices":[3,2,0,3,2,3,0,0,4,0,4,3,2,3,2,4,4,2,2,2,3,1,2,3,1,4,3,0,2,3,3,0,0,4,4,4,2,2,3,2,0,4,2,3,0,3,0,0,0,0,0,2,3,0,0,3,1,0,0,0,0,0,0,0,0,0,0,0,0,0,0,0,0,0,0,0,0,0,0,0,0,0,0,0,0,0,0,0,0,0,0,0,0],"split_type":[0,0,0,0,0,0,0,0,0,0,0,0,0,0,0,0,0,0,0,0,0,0,0,0,0,0,0,0,0,0,0,0,0,0,0,0,0,0,0,0,0,0,0,0,0,0,0,0,0,0,0,0,0,0,0,0,0,0,0,0,0,0,0,0,0,0,0,0,0,0,0,0,0,0,0,0,0,0,0,0,0,0,0,0,0,0,0,0,0,0,0,0,0],"sum_hessian":[1.823E3,1.308E3,5.15E2,2.9E2,1.018E3,3.34E2,1.81E2,1E1,2.8E2,2.28E2,7.9E2,3.1E2,2.4E1,1.27E2,5.4E1,2.75E2,5E0,6.5E1,1.63E2,7.21E2,6.9E1,3.04E2,6E0,2.2E1,2E0,6E0,1.21E2,2E0,5.2E1,2.3E1,2.52E2,4E0,1E0,4.7E1,1.8E1,2.6E1,1.37E2,6.99E2,2.2E1,4.6E1,2.3E1,6.2E1,2.42E2,4E0,2E0,1E1,1.2E1,1E0,1E0,5E0,1E0,3E0,1.18E2,1E0,1E0,1.4E1,3.8E1,9E0,1.4E1,2.47E2,5E0,4.3E1,4E0,1.7E1,1E0,2.3E1,3E0,1.2E1,1.25E2,6.95E2,4E0,1.5E1,7E0,5E0,4.1E1,3E0,2E1,5.4E1,8E0,2.21E2,2.1E1,3E0,1E0,7E0,3E0,2E0,1E0,8.5E1,3.3E1,7E0,7E0,1.2E1,2.6E1],"tree_param":{"num_deleted":"0","num_feature":"5","num_nodes":"93","size_leaf_vector":"1"}},{"base_weights":[6.110869E-1,1.51602125E1,-3.3177032E0,7.837762E0,5.505898E1,-1.5904939E1,-6.14599E-1,2.654087E1,-6.330745E0,1.2184244E2,2.1138777E1,-5.9034047E0,-2.4959694E1,4.2394557E0,-8.951921E0,1.8577349E1,1.0413448E2,1.8219131E1,-2.0394169E1,-5.4015583E1,1.6918292E2,1.3237096E2,1.2040436E1,-1.0368536E1,1.2841013E2,-1.948305E1,-4.5739E1,2.8808773E0,4.3468662E1,-7.075248E1,-8.360341E0,2.1379612E1,-4.289937E1,-2.4718847E1,1.8775768E2,3.5808674E1,-2.6665684E1,-6.781662E1,-1.29736595E1,1.6286905E1,-3.1893864E1,2.0264844E2,-4.338377E1,-6.774527E0,6.634146E1,-3.3188698E1,2.1661188E1,-2.203568E1,7.973379E0,-2.651349E0,5.3131615E1,-2.453726E1,5.6225304E1,-2.4676857E1,-3.1388556E1,2.5186886E1,1.1556644E0,-4.5957653E1,7.412737E1,-3.283E0,-2.6112326E1,-3.1627172E1,-6.917722E0,3.9255261E0,1.3523002E1,-2.6478077E1,9.564481E0,8.964632E0,-4.4658543E1,6.559154E1,-4.2611485E0,1.9656311E1,5.555047E0,5.0711145E0,-2.1577637E1,-6.1151743E0,-3.0733152E1,6.315593E0,-8.4532175E0,8.914555E0,-1.5854462E0,3.2666386E1,1.5304228E2,-3.237096E1,1.2848264E1,1.6904758E1,-3.1923218E0,-1.0754749E1,1.1621679E1,-5.8708534E0,1.0555215E1,3.6582634E0,-9.030622E0,3.2787506E1,-3.269219E0,-1.2865366E1,4.1926613E0,8.9134655E0,-3.0835642E1,1.2252314E0,-4.82942E0,-1.9446379E1,1.0083595E1,-9.758324E0,3.4362568E1,-2.0254938E1,2.7982492E1,-4.072777E-2,-5.409155E0],"categories":[],"categories_nodes":[],"categories_segments":[],"categories_sizes":[],"default_left":[0,0,0,0,0,0,0,0,0,0,0,0,0,0,0,0,0,0,0,0,0,0,0,0,0,0,0,0,0,0,0,0,0,0,0,0,0,0,0,0,0,0,0,0,0,0,0,0,0,0,0,0,0,0,0,0,0,0,0,0,0,0,0,0,0,0,0,0,0,0,0,0,0,0,0,0,0,0,0,0,0,0,0,0,0,0,0,0,0,0,0,0,0,0,0,0,0,0,0,0,0,0,0,0,0,0,0,0,0],"id":7,"left_children":[1,3,5,7,9,11,13,15,17,19,21,23,25,27,29,31,33,35,37,39,41,43,45,47,49,51,53,55,57,59,61,63,65,67,69,71,73,75,77,79,-1,81,83,-1,-1,-1,85,87,89,-1,-1,91,93,-1,95,97,99,101,103,-1,-1,105,107,-1,-1,-1,-1,-1,-1,-1,-1,-1,-1,-1,-1,-1,-1,-1,-1,-1,-1,-1,-1,-1,-1,-1,-1,-1,-1,-1,-1,-1,-1,-1,-1,-1,-1,-1,-1,-1,-1,-1,-1,-1,-1,-1,-1,-1,-1],"loss_changes":[1.0431098E5,1.1292528E5,4.8883594E4,8.735142E4,1.333429E5,2.285525E4,4.795422E4,8.580989E4,6.5279555E4,1.756426E5,3.989936E4,7.449819E4,1.4244391E4,3.9793445E4,1.5348633E4,2.331279E4,1.447178E5,5.54306E4,4.1348016E4,2.0114658E4,1.2261009E5,4.6257863E4,4.8423066E4,2.5641436E4,2.8298523E4,4.2322746E4,1.1567117E4,2.7870787E4,7.194911E4,2.9443125E3,1.4314934E4,2.3979652E4,2.3166664E4,4.5118242E4,5.299928E4,2.447584E4,4.0654625E4,2.4191195E4,5.491143E4,1.0260525E3,0E0,3.480808E5,2.1308143E4,0E0,0E0,0E0,4.205815E4,6.267291E4,3.591317E4,0E0,0E0,2.101184E4,2.6124701E4,0E0,1.1550947E4,3.3163566E4,3.412062E4,1.26855625E4,8.5623695E4,0E0,0E0,1.1836381E5,3.082247E4,0E0,0E0,0E0,0E0,0E0,0E0,0E0,0E0,0E0,0E0,0E0,0E0,0E0,0E0,0E0,0E0,0E0,0E0,0E0,0E0,0E0,0E0,0E0,0E0,0E0,0E0,0E0,0E0,0E0,0E0,0E0,0E0,0E0,0E0,0E0,0E0,0E0,0E0,0E0,0E0,0E0,0E0,0E0,0E0,0E0,0E0],"parents":[2147483647,0,0,1,1,2,2,3,3,4,4,5,5,6,6,7,7,8,8,9,9,10,10,11,11,12,12,13,13,14,14,15,15,16,16,17,17,18,18,19,19,20,20,21,21,22,22,23,23,24,24,25,25,26,26,27,27,28,28,29,29,30,30,31,31,32,32,33,33,34,34,35,35,36,36,37,37,38,38,39,39,41,41,42,42,46,46,47,47,48,48,51,51,52,52,54,54,55,55,56,56,57,57,58,58,61,61,62,62],"right_children":[2,4,6,8,10,12,14,16,18,20,22,24,26,28,30,32,34,36,38,40,42,44,46,48,50,52,54,56,58,60,62,64,66,68,70,72,74,76,78,80,-1,82,84,-1,-1,-1,86,88,90,-1,-1,92,94,-1,96,98,100,102,104,-1,-1,106,108,-1,-1,-1,-1,-1,-1,-1,-1,-1,-1,-1,-1,-1,-1,-1,-1,-1,-1,-1,-1,-1,-1,-1,-1,-1,-1,-1,-1,-1,-1,-1,-1,-1,-1,-1,-1,-1,-1,-1,-1,-1,-1,-1,-1,-1,-1],"split_conditions":[2.9E1,2.8E1,7.2E1,5.2E1,1E0,6.7E1,4.9E1,2.7E1,2E1,5.3E1,4.9E1,5E0,2E0,4.8E1,1E0,2E0,4.9E1,1E0,5.4E1,4.4E1,8.4E1,3.8E1,5.5E1,2E0,3.2E1,3E0,3.8E1,7.5E1,2E0,2E0,5E1,1E0,4.9E1,1E0,2E0,5.6E1,5.5E1,2.1E1,5.8E1,4.3E1,-3.1893864E1,7.8E1,9.1E1,-6.774527E0,6.634146E1,-3.3188698E1,7.2E1,2E0,6.2E1,-2.651349E0,5.3131615E1,3.5E1,5.3E1,-2.4676857E1,7.1E1,2E0,4.4E1,8.5E1,8E1,-3.283E0,-2.6112326E1,9.1E1,8.7E1,3.9255261E0,1.3523002E1,-2.6478077E1,9.564481E0,8.964632E0,-4.4658543E1,6.559154E1,-4.2611485E0,1.9656311E1,5.555047E0,5.0711145E0,-2.1577637E1,-6.1151743E0,-3.0733152E1,6.315593E0,-8.4532175E0,8.914555E0,-1.5854462E0,3.2666386E1,1.5304228E2,-3.237096E1,1.2848264E1,1.6904758E1,-3.1923218E0,-1.0754749E1,1.1621679E1,-5.8708534E0,1.0555215E1,3.6582634E0,-9.030622E0,3.2787506E1,-3.269219E0,-1.2865366E1,4.1926613E0,8.9134655E0,-3.0835642E1,1.2252314E0,-4.82942E0,-1.9446379E1,1.0083595E1,-9.758324E0,3.4362568E1,-2.0254938E1,2.7982492E1,-4.072777E-2,-5.409155E0],"split_indices":[3,3,2,2,0,2,3,3,3,2,2,4,4,3,4,1,2,0,2,2,2,2,2,1,3,1,3,2,1,1,3,0,2,0,4,2,2,3,2,2,0,2,2,0,0,0,2,4,2,0,0,3,3,0,2,0,3,2,2,0,0,2,2,0,0,0,0,0,0,0,0,0,0,0,0,0,0,0,0,0,0,0,0,0,0,0,0,0,0,0,0,0,0,0,0,0,0,0,0,0,0,0,0,0,0,0,0,0,0],"split_type":[0,0,0,0,0,0,0,0,0,0,0,0,0,0,0,0,0,0,0,0,0,0,0,0,0,0,0,0,0,0,0,0,0,0,0,0,0,0,0,0,0,0,0,0,0,0,0,0,0,0,0,0,0,0,0,0,0,0,0,0,0,0,0,0,0,0,0,0,0,0,0,0,0,0,0,0,0,0,0,0,0,0,0,0,0,0,0,0,0,0,0,0,0,0,0,0,0,0,0,0,0,0,0,0,0,0,0,0,0],"sum_hessian":[1.823E3,3.87E2,1.436E3,3.28E2,5.9E1,2.53E2,1.183E3,1.41E2,1.87E2,1.9E1,4E1,1.21E2,1.32E2,7.48E2,4.35E2,1.29E2,1.2E1,6.8E1,1.19E2,4E0,1.5E1,2E0,3.8E1,1.18E2,3E0,1.06E2,2.6E1,7.24E2,2.4E1,3E0,4.32E2,1.24E2,5E0,5E0,7E0,4.9E1,1.9E1,1.5E1,1.04E2,2E0,2E0,1.3E1,2E0,1E0,1E0,2E0,3.6E1,7.2E1,4.6E1,1E0,2E0,1E2,6E0,6E0,2E1,5.1E1,6.73E2,6E0,1.8E1,1E0,2E0,2.4E1,4.08E2,9.3E1,3.1E1,3E0,2E0,4E0,1E0,6E0,1E0,1.7E1,3.2E1,1E1,9E0,7E0,8E0,3.2E1,7.2E1,1E0,1E0,1.1E1,2E0,1E0,1E0,1.7E1,1.9E1,5.9E1,1.3E1,2.3E1,2.3E1,1.3E1,8.7E1,3E0,3E0,1.6E1,4E0,5E1,1E0,5.76E2,9.7E1,5E0,1E0,5E0,1.3E1,1.9E1,5E0,2.54E2,1.54E2],"tree_param":{"num_deleted":"0","num_feature":"5","num_nodes":"109","size_leaf_vector":"1"}},{"base_weights":[5.303004E-1,1.1069883E1,-2.3158293E0,5.473938E0,4.1569817E1,-4.1198773E0,9.546107E0,1.8762905E1,-4.592591E0,9.237077E1,1.5774966E1,-1.0241799E1,7.8183246E-1,9.754E1,5.14231E0,1.3008249E1,7.4866165E1,1.2879546E1,-1.4600799E1,4.5856613E1,2.2274191E2,1.1251532E2,7.9289145E0,3.8527021E0,-1.5051407E1,3.750684E1,-2.8802836E0,2.0494363E2,-2.9371628E1,-2.4649588E1,1.4535844E1,1.7175768E1,9.6377E0,-2.3252182E1,1.3909666E2,2.5570293E1,-1.94913E1,-3.2041885E1,1.5466447E-1,1.10537636E2,-5.309579E1,1.8828223E2,-3.5376312E1,-5.7583466E0,5.6390244E1,-2.655096E1,1.5533439E1,-2.9719984E1,1.5112179E1,-5.0597363E1,-1.1008561E1,-3.9465794E1,7.1641975E1,8.460659E0,-1.4913727E1,6.78847E1,1.7938326E1,-1.3943629E1,5.8585377E0,-8.9390945E1,-1.594068E1,8.913414E1,1.0500326E1,9.5917696E-1,7.8639145E0,6.8131185E0,-3.7959763E1,4.8725136E1,-3.6219773E0,-3.4183853E0,1.0528916E1,3.6880856E0,-1.5751675E1,-1.4581617E1,-1.8764374E-1,1.2704331E1,-9.042537E0,-1.2817158E1,6.594978E1,-2.0284853E1,5.1039734E0,-2.1431208E1,1.0921024E1,8.686693E0,-1.1022451E1,-1.4308512E1,-3.3380334E0,8.402932E-1,1.6007574E1,-2.4762123E0,-1.8568626E1,-3.9690096E0,8.057255E0,-2.7432228E1,-4.813427E0,2.9185955E1,8.758517E0,2.149194E0,4.3704544E1,-1.8394379E1,-3.2820044E0,-4.7439423E-1,-3.328441E1,3.7740932E1,-1.0555355E1,6.541828E1,-1.8622856E1,5.126454E0,-7.634582E0],"categories":[],"categories_nodes":[],"categories_segments":[],"categories_sizes":[],"default_left":[0,0,0,0,0,0,0,0,0,0,0,0,0,0,0,0,0,0,0,0,0,0,0,0,0,0,0,0,0,0,0,0,0,0,0,0,0,0,0,0,0,0,0,0,0,0,0,0,0,0,0,0,0,0,0,0,0,0,0,0,0,0,0,0,0,0,0,0,0,0,0,0,0,0,0,0,0,0,0,0,0,0,0,0,0,0,0,0,0,0,0,0,0,0,0,0,0,0,0,0,0,0,0,0,0,0,0,0,0],"id":8,"left_children":[1,3,5,7,9,11,13,15,17,19,21,23,25,27,29,31,33,35,37,39,41,43,45,47,49,51,53,55,57,59,61,-1,63,65,67,69,71,73,75,77,79,-1,81,-1,-1,-1,83,85,87,89,91,93,95,97,99,-1,-1,-1,-1,101,103,105,107,-1,-1,-1,-1,-1,-1,-1,-1,-1,-1,-1,-1,-1,-1,-1,-1,-1,-1,-1,-1,-1,-1,-1,-1,-1,-1,-1,-1,-1,-1,-1,-1,-1,-1,-1,-1,-1,-1,-1,-1,-1,-1,-1,-1,-1,-1],"loss_changes":[5.47402E4,6.599472E4,3.079042E4,4.409775E4,7.716703E4,3.745785E4,7.3124805E4,4.4871523E4,3.3062625E4,1.11067875E5,3.0228098E4,3.7680887E4,9.344495E4,1.2869645E5,5.1291223E4,1.8834807E4,8.516277E4,2.8844309E4,3.088711E4,1.0827456E5,5.4471825E5,3.342131E4,2.9974252E4,5.412668E4,5.8937625E4,1.683581E5,8.6375586E4,1.9560625E3,5.090361E3,2.338342E4,4.0909008E4,0E0,1.2940006E4,3.135579E4,3.0163719E4,1.800647E4,2.163261E4,2.8589723E4,8.564433E4,1.7689925E5,8.276439E3,0E0,1.2954371E4,0E0,0E0,0E0,2.7024736E4,1.1501006E4,5.0232465E4,1.958179E4,3.1731477E4,2.2879002E4,4.5055094E4,5.696211E4,5.5935016E4,0E0,0E0,0E0,0E0,9.289148E3,1.135341E5,1.5000183E5,3.1932762E4,0E0,0E0,0E0,0E0,0E0,0E0,0E0,0E0,0E0,0E0,0E0,0E0,0E0,0E0,0E0,0E0,0E0,0E0,0E0,0E0,0E0,0E0,0E0,0E0,0E0,0E0,0E0,0E0,0E0,0E0,0E0,0E0,0E0,0E0,0E0,0E0,0E0,0E0,0E0,0E0,0E0,0E0,0E0,0E0,0E0,0E0],"parents":[2147483647,0,0,1,1,2,2,3,3,4,4,5,5,6,6,7,7,8,8,9,9,10,10,11,11,12,12,13,13,14,14,15,15,16,16,17,17,18,18,19,19,20,20,21,21,22,22,23,23,24,24,25,25,26,26,27,27,28,28,29,29,30,30,32,32,33,33,34,34,35,35,36,36,37,37,38,38,39,39,40,40,42,42,46,46,47,47,48,48,49,49,50,50,51,51,52,52,53,53,54,54,59,59,60,60,61,61,62,62],"right_children":[2,4,6,8,10,12,14,16,18,20,22,24,26,28,30,32,34,36,38,40,42,44,46,48,50,52,54,56,58,60,62,-1,64,66,68,70,72,74,76,78,80,-1,82,-1,-1,-1,84,86,88,90,92,94,96,98,100,-1,-1,-1,-1,102,104,106,108,-1,-1,-1,-1,-1,-1,-1,-1,-1,-1,-1,-1,-1,-1,-1,-1,-1,-1,-1,-1,-1,-1,-1,-1,-1,-1,-1,-1,-1,-1,-1,-1,-1,-1,-1,-1,-1,-1,-1,-1,-1,-1,-1,-1,-1,-1],"split_conditions":[2.9E1,2.8E1,2E0,5.2E1,1E0,8.2E1,5.8E1,2.7E1,2E1,7.8E1,4.9E1,3.4E1,8.3E1,3.9E1,7.2E1,1.5E1,4.9E1,1E0,2.6E1,5.9E1,8.3E1,3.8E1,5.5E1,1E0,3.6E1,3.5E1,4.2E1,3.7E1,4E1,6.2E1,3.3E1,1.7175768E1,1E0,1E0,2E0,5.5E1,5.5E1,1E0,1E0,5.3E1,2E0,1.8828223E2,9.1E1,-5.7583466E0,5.6390244E1,-2.655096E1,8.2E1,6.4E1,3.3E1,7.6E1,3E0,3.2E1,5.4E1,3E0,4.4E1,6.78847E1,1.7938326E1,-1.3943629E1,5.8585377E0,3E0,6.4E1,8.2E1,6.3E1,9.5917696E-1,7.8639145E0,6.8131185E0,-3.7959763E1,4.8725136E1,-3.6219773E0,-3.4183853E0,1.0528916E1,3.6880856E0,-1.5751675E1,-1.4581617E1,-1.8764374E-1,1.2704331E1,-9.042537E0,-1.2817158E1,6.594978E1,-2.0284853E1,5.1039734E0,-2.1431208E1,1.0921024E1,8.686693E0,-1.1022451E1,-1.4308512E1,-3.3380334E0,8.402932E-1,1.6007574E1,-2.4762123E0,-1.8568626E1,-3.9690096E0,8.057255E0,-2.7432228E1,-4.813427E0,2.9185955E1,8.758517E0,2.149194E0,4.3704544E1,-1.8394379E1,-3.2820044E0,-4.7439423E-1,-3.328441E1,3.7740932E1,-1.0555355E1,6.541828E1,-1.8622856E1,5.126454E0,-7.634582E0],"split_indices":[3,3,4,2,0,2,2,3,3,2,2,3,2,3,2,3,2,0,3,2,2,2,2,0,3,3,3,3,3,2,3,0,0,0,4,2,2,0,0,2,1,0,2,0,0,0,2,2,3,2,1,3,3,1,3,0,0,0,0,4,2,2,3,0,0,0,0,0,0,0,0,0,0,0,0,0,0,0,0,0,0,0,0,0,0,0,0,0,0,0,0,0,0,0,0,0,0,0,0,0,0,0,0,0,0,0,0,0,0],"split_type":[0,0,0,0,0,0,0,0,0,0,0,0,0,0,0,0,0,0,0,0,0,0,0,0,0,0,0,0,0,0,0,0,0,0,0,0,0,0,0,0,0,0,0,0,0,0,0,0,0,0,0,0,0,0,0,0,0,0,0,0,0,0,0,0,0,0,0,0,0,0,0,0,0,0,0,0,0,0,0,0,0,0,0,0,0,0,0,0,0,0,0,0,0,0,0,0,0,0,0,0,0,0,0,0,0,0,0,0,0],"sum_hessian":[1.823E3,3.87E2,1.436E3,3.28E2,5.9E1,1.247E3,1.89E2,1.41E2,1.87E2,1.9E1,4E1,5.54E2,6.93E2,8E0,1.81E2,1.29E2,1.2E1,6.8E1,1.19E2,1.5E1,4E0,2E0,3.8E1,1.41E2,4.13E2,6.2E1,6.31E2,4E0,4E0,4.3E1,1.38E2,8E0,1.21E2,5E0,7E0,4.9E1,1.9E1,5.4E1,6.5E1,9E0,6E0,1E0,3E0,1E0,1E0,2E0,3.6E1,3.5E1,1.06E2,4.1E1,3.72E2,1.9E1,4.3E1,3.25E2,3.06E2,3E0,1E0,3E0,1E0,4E0,3.9E1,6E0,1.32E2,8.8E1,3.3E1,4E0,1E0,6E0,1E0,1E1,3.9E1,1E1,9E0,3.5E1,1.9E1,2.7E1,3.8E1,4E0,5E0,5E0,1E0,2E0,1E0,2.9E1,7E0,1.7E1,1.8E1,8.1E1,2.5E1,9E0,3.2E1,3.52E2,2E1,5E0,1.4E1,2.6E1,1.7E1,3.23E2,2E0,2.3E1,2.83E2,1E0,3E0,4E0,3.5E1,3E0,3E0,1.12E2,2E1],"tree_param":{"num_deleted":"0","num_feature":"5","num_nodes":"109","size_leaf_vector":"1"}},{"base_weights":[5.8444107E-1,1.1460762E1,-1.054919E0,1.4551554E1,-1.9687115E1,-6.6486297E0,2.0300345E0,8.79169E0,3.231732E1,-3.0411716E1,3.0829428E1,-3.147076E0,-1.9856646E1,5.411039E0,-9.585403E0,1.4755656E1,-3.5483047E1,7.2452866E1,2.3649979E1,-5.3329628E1,1.3095093E-1,-6.063255E0,2.240621E1,-2.7912165E1,1.8681337E1,5.007774E0,4.8719532E1,1.7471931E1,-1.4343887E1,6.506167E0,3.2727226E1,2.6496033E1,-5.263382E1,3.2204685E0,9.950357E1,-3.5148514E1,-2.4271421E1,-1.2655287E1,2.429238E1,-4.579786E0,-2.6497368E1,1.2445928E2,9.723553E0,-1.9870228E1,-6.2550205E1,6.5502235E1,-2.1892859E1,3.3317047E1,3.7719662E0,4.926469E1,-1.5291491E1,-1.9160799E1,-8.949035E-1,6.1893463E0,-1.2872129E1,2.1980816E-1,1.8607508E1,2.5994248E0,1.4673176E1,-1.9298681E1,-4.2116313E0,2.7654928E1,-2.5709665E0,1.0042165E2,3.0107596E0,-2.1254177E1,-1.6473801E0,2.2123257E1,-3.071154E0,-2.3708787E0,3.2592914E0,-2.452903E1,-4.8546906E0,-1.3281819E1,1.19908104E2,-1.1294367E1,6.5931196E0,-4.570485E0,-3.1587187E1,-2.100947E1,9.694922E0,-4.962227E-1,2.8355946E1,1.621663E1,-1.0113413E1,2.6914034E1,-3.887984E0,-3.5157619E0,1.7769074E0,9.076279E-1,3.6448257E1,-1.1191432E1,1.8148829E0,-8.168357E0,-3.4435503E0,1.8017109E1,-4.939934E0],"categories":[],"categories_nodes":[],"categories_segments":[],"categories_sizes":[],"default_left":[0,0,0,0,0,0,0,0,0,0,0,0,0,0,0,0,0,0,0,0,0,0,0,0,0,0,0,0,0,0,0,0,0,0,0,0,0,0,0,0,0,0,0,0,0,0,0,0,0,0,0,0,0,0,0,0,0,0,0,0,0,0,0,0,0,0,0,0,0,0,0,0,0,0,0,0,0,0,0,0,0,0,0,0,0,0,0,0,0,0,0,0,0,0,0,0,0],"id":9,"left_children":[1,3,5,7,9,11,13,15,17,19,-1,21,23,25,27,29,31,-1,33,35,37,39,41,43,45,47,-1,49,51,53,55,57,59,61,63,65,-1,-1,67,69,71,73,75,77,79,81,83,85,87,89,91,93,95,-1,-1,-1,-1,-1,-1,-1,-1,-1,-1,-1,-1,-1,-1,-1,-1,-1,-1,-1,-1,-1,-1,-1,-1,-1,-1,-1,-1,-1,-1,-1,-1,-1,-1,-1,-1,-1,-1,-1,-1,-1,-1,-1,-1],"loss_changes":[3.2534389E4,2.3295385E4,2.7382049E4,2.202346E4,3.2016697E4,2.6021707E4,4.0226965E4,4.435638E4,9.038475E4,1.4706439E4,0E0,3.3445383E4,3.715376E4,4.93896E4,2.9992305E4,2.1580748E4,2.265437E4,0E0,8.026144E4,3.1724727E3,1.1248723E4,1.2064625E4,5.8327805E4,2.6055695E4,4.1328156E4,2.7582307E4,0E0,3.7210715E4,1.274502E4,7.207732E4,4.307353E4,1.574603E3,6.318879E3,4.484384E4,2.2814612E5,9.139494E3,0E0,0E0,1.2707775E4,1.9383277E4,1.4068855E4,2.4989981E5,2.520698E4,3.0467639E4,1.5038328E4,1.9643477E4,1.2593441E4,8.728791E4,2.539445E4,5.9749527E4,8.681855E3,8.673633E3,5.1292055E4,0E0,0E0,0E0,0E0,0E0,0E0,0E0,0E0,0E0,0E0,0E0,0E0,0E0,0E0,0E0,0E0,0E0,0E0,0E0,0E0,0E0,0E0,0E0,0E0,0E0,0E0,0E0,0E0,0E0,0E0,0E0,0E0,0E0,0E0,0E0,0E0,0E0,0E0,0E0,0E0,0E0,0E0,0E0,0E0],"parents":[2147483647,0,0,1,1,2,2,3,3,4,4,5,5,6,6,7,7,8,8,9,9,11,11,12,12,13,13,14,14,15,15,16,16,18,18,19,19,20,20,21,21,22,22,23,23,24,24,25,25,27,27,28,28,29,29,30,30,31,31,32,32,33,33,34,34,35,35,38,38,39,39,40,40,41,41,42,42,43,43,44,44,45,45,46,46,47,47,48,48,49,49,50,50,51,51,52,52],"right_children":[2,4,6,8,10,12,14,16,18,20,-1,22,24,26,28,30,32,-1,34,36,38,40,42,44,46,48,-1,50,52,54,56,58,60,62,64,66,-1,-1,68,70,72,74,76,78,80,82,84,86,88,90,92,94,96,-1,-1,-1,-1,-1,-1,-1,-1,-1,-1,-1,-1,-1,-1,-1,-1,-1,-1,-1,-1,-1,-1,-1,-1,-1,-1,-1,-1,-1,-1,-1,-1,-1,-1,-1,-1,-1,-1,-1,-1,-1,-1,-1,-1],"split_conditions":[5.6E1,2E0,7.8E1,5.3E1,4.3E1,7.5E1,5.5E1,5.2E1,1.7E1,3.5E1,3.0829428E1,7.4E1,5.5E1,5E0,2E0,1E0,1.7E1,7.2452866E1,2.8E1,2.8E1,5.2E1,2E0,2.8E1,4.9E1,2E0,2.9E1,4.8719532E1,8.3E1,9E1,5E1,2.1E1,1E0,2.9E1,1E0,5.4E1,4.9E1,-2.4271421E1,-1.2655287E1,3.9E1,2E0,4.8E1,2.7E1,1E0,4E0,3E0,7.6E1,5.7E1,8.3E1,3.2E1,8.2E1,3E0,2E0,9.1E1,6.1893463E0,-1.2872129E1,2.1980816E-1,1.8607508E1,2.5994248E0,1.4673176E1,-1.9298681E1,-4.2116313E0,2.7654928E1,-2.5709665E0,1.0042165E2,3.0107596E0,-2.1254177E1,-1.6473801E0,2.2123257E1,-3.071154E0,-2.3708787E0,3.2592914E0,-2.452903E1,-4.8546906E0,-1.3281819E1,1.19908104E2,-1.1294367E1,6.5931196E0,-4.570485E0,-3.1587187E1,-2.100947E1,9.694922E0,-4.962227E-1,2.8355946E1,1.621663E1,-1.0113413E1,2.6914034E1,-3.887984E0,-3.5157619E0,1.7769074E0,9.076279E-1,3.6448257E1,-1.1191432E1,1.8148829E0,-8.168357E0,-3.4435503E0,1.8017109E1,-4.939934E0],"split_indices":[2,1,2,2,3,2,3,2,3,3,0,2,3,4,1,0,3,0,3,3,2,0,3,3,0,3,0,2,2,2,3,4,3,4,2,2,0,0,3,4,3,3,0,4,4,2,3,2,3,2,0,0,2,0,0,0,0,0,0,0,0,0,0,0,0,0,0,0,0,0,0,0,0,0,0,0,0,0,0,0,0,0,0,0,0,0,0,0,0,0,0,0,0,0,0,0,0],"split_type":[0,0,0,0,0,0,0,0,0,0,0,0,0,0,0,0,0,0,0,0,0,0,0,0,0,0,0,0,0,0,0,0,0,0,0,0,0,0,0,0,0,0,0,0,0,0,0,0,0,0,0,0,0,0,0,0,0,0,0,0,0,0,0,0,0,0,0,0,0,0,0,0,0,0,0,0,0,0,0,0,0,0,0,0,0,0,0,0,0,0,0,0,0,0,0,0,0],"sum_hessian":[1.823E3,2.38E2,1.585E3,2.17E2,2.1E1,5.63E2,1.022E3,1.65E2,5.2E1,2E1,1E0,4.46E2,1.17E2,7.92E2,2.3E2,1.46E2,1.9E1,1E0,5.1E1,1.1E1,9E0,4.01E2,4.5E1,9.7E1,2E1,7.91E2,1E0,3.4E1,1.96E2,1.01E2,4.5E1,4E0,1.5E1,4.1E1,1E1,8E0,3E0,3E0,6E0,3.75E2,2.6E1,4E0,4.1E1,8E1,1.7E1,9E0,1.1E1,3.2E1,7.59E2,1.7E1,1.7E1,1.44E2,5.2E1,7.9E1,2.2E1,2.2E1,2.3E1,3E0,1E0,1.1E1,4E0,4E0,3.7E1,2E0,8E0,3E0,5E0,2E0,4E0,3.09E2,6.6E1,3E0,2.3E1,3E0,1E0,8E0,3.3E1,7.7E1,3E0,1.6E1,1E0,3E0,6E0,1E0,1E1,1.4E1,1.8E1,9.2E1,6.67E2,1.1E1,6E0,8E0,9E0,6.9E1,7.5E1,1E1,4.2E1],"tree_param":{"num_deleted":"0","num_feature":"5","num_nodes":"97","size_leaf_vector":"1"}},{"base_weights":[6.0444796E-1,1.4611849E1,-3.5542926E-1,-1.6355717E1,1.8306768E1,2.465356E1,-8.324312E-1,-3.437362E1,3.277797E1,2.5199402E1,-6.256314E-1,3.3737183E0,6.497201E1,-4.947626E1,-3.044665E-1,4.891782E0,-1.2544936E1,1.5384523E0,1.2085553E1,1.9075893E1,5.0966187E1,-4.509486E1,1.5573435E1,1.5578793E1,-4.1239296E1,9.427837E1,-4.460442E1,-7.008882E1,4.514058E1,8.1033134E-1,-8.683898E0,2.3401043E1,-6.354576E1,1.0593338E0,-1.5763762E1,-3.1331955E1,2.46286E1,-1.5120865E1,2.2726782E1,-1.4369839E1,-2.189795E0,1.1391135E2,-9.417806E0,6.6932374E-1,-2.0741314E1,-5.088782E1,-5.3266113E1,1.6528551E-1,2.3225576E1,-2.778574E1,-6.463894E0,5.8056965E0,2.621737E1,-3.5783066E1,1.5547138E1,1.0972595E1,-1.9847847E1,1.5388748E1,-3.210357E0,6.738877E0,-1.054093E1,1.895116E1,3.4936187E0,4.1627426E1,-9.00238E0,4.1641116E0,-2.0948753E1,2.1240343E-1,-1.0350802E1,4.040682E1,4.216773E0,-9.962416E0,6.616562E-1,7.918985E-1,-4.385087E0],"categories":[],"categories_nodes":[],"categories_segments":[],"categories_sizes":[],"default_left":[0,0,0,0,0,0,0,0,0,0,0,0,0,0,0,0,0,0,0,0,0,0,0,0,0,0,0,0,0,0,0,0,0,0,0,0,0,0,0,0,0,0,0,0,0,0,0,0,0,0,0,0,0,0,0,0,0,0,0,0,0,0,0,0,0,0,0,0,0,0,0,0,0,0,0],"id":10,"left_children":[1,3,5,7,9,11,13,15,17,19,21,23,25,27,29,-1,-1,-1,-1,31,-1,33,35,37,39,41,43,45,-1,47,49,51,53,-1,-1,55,57,59,61,-1,-1,63,-1,-1,-1,-1,65,67,69,71,73,-1,-1,-1,-1,-1,-1,-1,-1,-1,-1,-1,-1,-1,-1,-1,-1,-1,-1,-1,-1,-1,-1,-1,-1],"loss_changes":[2.4529574E4,1.3686871E4,2.0395828E4,1.2635416E4,1.3717648E4,2.723585E4,4.3054027E4,4.4538516E3,6.237012E2,6.498104E4,2.159272E4,1.2621571E4,3.952939E4,8.473092E4,1.5513715E4,0E0,0E0,0E0,0E0,2.8288355E4,0E0,3.0840469E3,1.01158545E4,4.293584E3,7.805957E2,2.578164E4,3.6013374E3,1.9430945E4,0E0,2.1192852E4,8.0895996E3,1.6962426E4,3.1900074E4,0E0,0E0,1.1879974E4,1.844973E4,3.7983103E3,5.9869463E3,0E0,0E0,3.2771242E4,0E0,0E0,0E0,0E0,1.876368E4,2.6854902E4,4.001235E4,3.3256797E3,1.3101631E4,0E0,0E0,0E0,0E0,0E0,0E0,0E0,0E0,0E0,0E0,0E0,0E0,0E0,0E0,0E0,0E0,0E0,0E0,0E0,0E0,0E0,0E0,0E0,0E0],"parents":[2147483647,0,0,1,1,2,2,3,3,4,4,5,5,6,6,7,7,8,8,9,9,10,10,11,11,12,12,13,13,14,14,19,19,21,21,22,22,23,23,24,24,25,25,26,26,27,27,29,29,30,30,31,31,32,32,35,35,36,36,37,37,38,38,41,41,46,46,47,47,48,48,49,49,50,50],"right_children":[2,4,6,8,10,12,14,16,18,20,22,24,26,28,30,-1,-1,-1,-1,32,-1,34,36,38,40,42,44,46,-1,48,50,52,54,-1,-1,56,58,60,62,-1,-1,64,-1,-1,-1,-1,66,68,70,72,74,-1,-1,-1,-1,-1,-1,-1,-1,-1,-1,-1,-1,-1,-1,-1,-1,-1,-1,-1,-1,-1,-1,-1,-1],"split_conditions":[1.9E1,4.2E1,4.8E1,1.7E1,5.6E1,4.6E1,5E1,1E0,3.9E1,5.5E1,5.7E1,1E0,2.6E1,2.8E1,6.1E1,4.891782E0,-1.2544936E1,1.5384523E0,1.2085553E1,5.4E1,5.0966187E1,1.4E1,1.7E1,2E1,2.9E1,2E0,1E0,1E0,4.514058E1,5.9E1,6.9E1,5.3E1,1E0,1.0593338E0,-1.5763762E1,5.8E1,1.8E1,4.2E1,2.3E1,-1.4369839E1,-2.189795E0,2E0,-9.417806E0,6.6932374E-1,-2.0741314E1,-5.088782E1,2E1,5.8E1,6.6E1,3E0,8.3E1,5.8056965E0,2.621737E1,-3.5783066E1,1.5547138E1,1.0972595E1,-1.9847847E1,1.5388748E1,-3.210357E0,6.738877E0,-1.054093E1,1.895116E1,3.4936187E0,4.1627426E1,-9.00238E0,4.1641116E0,-2.0948753E1,2.1240343E-1,-1.0350802E1,4.040682E1,4.216773E0,-9.962416E0,6.616562E-1,7.918985E-1,-4.385087E0],"split_indices":[3,2,2,3,2,2,2,1,2,2,2,0,3,3,3,0,0,0,0,2,0,3,3,3,3,1,0,4,0,3,2,2,0,0,0,2,3,2,3,0,0,4,0,0,0,0,3,3,2,1,2,0,0,0,0,0,0,0,0,0,0,0,0,0,0,0,0,0,0,0,0,0,0,0,0],"split_type":[0,0,0,0,0,0,0,0,0,0,0,0,0,0,0,0,0,0,0,0,0,0,0,0,0,0,0,0,0,0,0,0,0,0,0,0,0,0,0,0,0,0,0,0,0,0,0,0,0,0,0,0,0,0,0,0,0,0,0,0,0,0,0,0,0,0,0,0,0,0,0,0,0,0,0],"sum_hessian":[1.823E3,1.16E2,1.707E3,1.2E1,1.04E2,3.1E1,1.676E3,9E0,3E0,7.6E1,2.8E1,2.1E1,1E1,1.7E1,1.659E3,1E0,8E0,1E0,2E0,7.4E1,2E0,7E0,2.1E1,1.7E1,4E0,8E0,2E0,1.6E1,1E0,1.465E3,1.94E2,7.1E1,3E0,1E0,6E0,3E0,1.8E1,3E0,1.4E1,3E0,1E0,7E0,1E0,1E0,1E0,1E0,1.5E1,1.425E3,4E1,1.9E1,1.75E2,6.8E1,3E0,2E0,1E0,1E0,2E0,1E1,8E0,1E0,2E0,2E0,1.2E1,6E0,1E0,3E0,1.2E1,1.404E3,2.1E1,2E0,3.8E1,1.6E1,3E0,8.3E1,9.2E1],"tree_param":{"num_deleted":"0","num_feature":"5","num_nodes":"75","size_leaf_vector":"1"}},{"base_weights":[4.568863E-1,6.464661E0,-8.499793E-1,3.5482423E0,4.865321E1,1.8260769E1,-1.5630709E0,5.8999996E0,-7.4715294E1,2.443822E2,2.4549222E0,-2.4017368E1,2.6135607E1,-9.707814E0,2.1390863E-1,3.6836987E0,1.350385E2,3.3131917E0,-9.748246E1,1.2226806E2,5.413614E1,-1.9007122E1,6.205766E1,-1.1051819E1,-3.2179443E1,8.014279E1,1.4387065E1,-6.6000304E0,-3.3210564E1,9.146616E-1,-2.5129375E1,8.887466E0,-2.188844E1,-1.8436749E1,5.985781E1,-9.603177E0,1.1094113E1,-1.12105034E2,-1.4620538E0,1.9817162E1,4.544101E0,5.7029724E0,-8.22081E1,4.018208E1,-3.0510834E1,-1.0465815E1,3.6282501E0,-1.1136628E1,-1.8613267E0,1.392334E2,1.6841747E1,-4.6879997E1,4.335317E1,-8.223672E0,4.629936E1,-4.8299625E1,2.3267729E1,5.1338196E-1,5.8484276E1,-3.2266026E1,1.9861748E1,1.8168087E0,2.7603542E1,-7.8609905E0,1.0284986E1,-3.79843E1,-5.933794E0,-1.7858335E1,1.5444498E1,-2.9141953E1,-5.611931E0,5.8141665E0,-1.9544043E1,3.0770419E0,-6.0006106E-1,5.3998905E1,1.9694092E1,-3.6916866E1,2.4774088E1,5.6750154E0,-2.0553205E1,4.9767056E1,6.337185E0,-1.7935842E0,-1.8357399E1,4.679587E1,6.06152E-1,-1.5331321E1,2.431531E0,1.2928628E1,-5.260302E0,-1.9089574E-1,2.8384001E0,4.088653E1,-1.6017597E1,-1.5467733E1,-6.124068E0,-9.816544E0,1.2356427E1],"categories":[],"categories_nodes":[],"categories_segments":[],"categories_sizes":[],"default_left":[0,0,0,0,0,0,0,0,0,0,0,0,0,0,0,0,0,0,0,0,0,0,0,0,0,0,0,0,0,0,0,0,0,0,0,0,0,0,0,0,0,0,0,0,0,0,0,0,0,0,0,0,0,0,0,0,0,0,0,0,0,0,0,0,0,0,0,0,0,0,0,0,0,0,0,0,0,0,0,0,0,0,0,0,0,0,0,0,0,0,0,0,0,0,0,0,0,0,0],"id":11,"left_children":[1,3,5,7,9,11,13,15,17,19,21,23,25,27,29,31,33,35,37,-1,39,41,43,45,47,49,51,53,55,57,59,61,63,-1,-1,-1,-1,65,-1,-1,-1,67,69,-1,71,-1,73,-1,-1,75,77,79,81,83,85,87,89,91,93,95,97,-1,-1,-1,-1,-1,-1,-1,-1,-1,-1,-1,-1,-1,-1,-1,-1,-1,-1,-1,-1,-1,-1,-1,-1,-1,-1,-1,-1,-1,-1,-1,-1,-1,-1,-1,-1,-1,-1],"loss_changes":[1.4326364E4,3.9938234E4,2.0456486E4,5.676221E4,1.8928928E5,1.8606111E4,2.0930096E4,8.479308E4,1.6311363E4,1.02112125E5,2.4205074E4,5.967905E2,2.8034238E4,1.869855E4,2.1121129E4,3.9317543E4,7.561921E4,4.7515205E3,8.932922E3,0E0,3.9380664E2,2.233266E4,3.7356953E4,1.8760157E3,4.1160596E2,2.757904E4,7.124445E4,2.013537E4,2.668996E4,2.6698426E4,1.0915611E4,5.7106312E4,1.3016992E4,0E0,0E0,0E0,0E0,5.5331406E3,0E0,0E0,0E0,3.591255E4,1.9756211E3,0E0,6.4466904E3,0E0,1.6974976E2,0E0,0E0,1.8217969E2,5.6145457E4,1.9797959E4,7.00411E4,2.6271223E4,3.3682492E4,4.2110703E3,6.4187266E3,1.183661E4,7.691223E4,5.3502715E3,6.954823E3,0E0,0E0,0E0,0E0,0E0,0E0,0E0,0E0,0E0,0E0,0E0,0E0,0E0,0E0,0E0,0E0,0E0,0E0,0E0,0E0,0E0,0E0,0E0,0E0,0E0,0E0,0E0,0E0,0E0,0E0,0E0,0E0,0E0,0E0,0E0,0E0,0E0,0E0],"parents":[2147483647,0,0,1,1,2,2,3,3,4,4,5,5,6,6,7,7,8,8,9,9,10,10,11,11,12,12,13,13,14,14,15,15,16,16,17,17,18,18,20,20,21,21,22,22,23,23,24,24,25,25,26,26,27,27,28,28,29,29,30,30,31,31,32,32,37,37,41,41,42,42,44,44,46,46,49,49,50,50,51,51,52,52,53,53,54,54,55,55,56,56,57,57,58,58,59,59,60,60],"right_children":[2,4,6,8,10,12,14,16,18,20,22,24,26,28,30,32,34,36,38,-1,40,42,44,46,48,50,52,54,56,58,60,62,64,-1,-1,-1,-1,66,-1,-1,-1,68,70,-1,72,-1,74,-1,-1,76,78,80,82,84,86,88,90,92,94,96,98,-1,-1,-1,-1,-1,-1,-1,-1,-1,-1,-1,-1,-1,-1,-1,-1,-1,-1,-1,-1,-1,-1,-1,-1,-1,-1,-1,-1,-1,-1,-1,-1,-1,-1,-1,-1,-1,-1],"split_conditions":[1E0,8.8E1,5.2E1,8.5E1,8.9E1,4.5E1,7.1E1,8.4E1,2E0,2E0,3.7E1,1.8E1,1.9E1,7E1,9.9E1,3.1E1,2E0,8.6E1,3.8E1,1.2226806E2,3.8E1,3.2E1,9.2E1,4E1,2.9E1,1E0,2.2E1,5E0,5.8E1,9.8E1,5.9E1,8.2E1,4E0,-1.8436749E1,5.985781E1,-9.603177E0,1.1094113E1,2E0,-1.4620538E0,1.9817162E1,4.544101E0,2E0,3.6E1,4.018208E1,2E0,-1.0465815E1,4.1E1,-1.1136628E1,-1.8613267E0,4.9E1,4.9E1,4.9E1,2.5E1,3E0,6E0,3E0,2E0,2E0,4.1E1,3.9E1,1E2,1.8168087E0,2.7603542E1,-7.8609905E0,1.0284986E1,-3.79843E1,-5.933794E0,-1.7858335E1,1.5444498E1,-2.9141953E1,-5.611931E0,5.8141665E0,-1.9544043E1,3.0770419E0,-6.0006106E-1,5.3998905E1,1.9694092E1,-3.6916866E1,2.4774088E1,5.6750154E0,-2.0553205E1,4.9767056E1,6.337185E0,-1.7935842E0,-1.8357399E1,4.679587E1,6.06152E-1,-1.5331321E1,2.431531E0,1.2928628E1,-5.260302E0,-1.9089574E-1,2.8384001E0,4.088653E1,-1.6017597E1,-1.5467733E1,-6.124068E0,-9.816544E0,1.2356427E1],"split_indices":[0,2,2,2,2,2,2,2,1,1,3,3,3,2,2,3,1,2,3,0,3,3,2,2,3,4,3,4,3,2,3,2,4,0,0,0,0,4,0,0,0,1,3,0,1,0,2,0,0,2,2,2,3,4,4,1,4,4,3,3,2,0,0,0,0,0,0,0,0,0,0,0,0,0,0,0,0,0,0,0,0,0,0,0,0,0,0,0,0,0,0,0,0,0,0,0,0,0,0],"split_type":[0,0,0,0,0,0,0,0,0,0,0,0,0,0,0,0,0,0,0,0,0,0,0,0,0,0,0,0,0,0,0,0,0,0,0,0,0,0,0,0,0,0,0,0,0,0,0,0,0,0,0,0,0,0,0,0,0,0,0,0,0,0,0,0,0,0,0,0,0,0,0,0,0,0,0,0,0,0,0,0,0,0,0,0,0,0,0,0,0,0,0,0,0,0,0,0,0,0,0],"sum_hessian":[1.823E3,3.25E2,1.498E3,3.05E2,2E1,5.3E1,1.445E3,2.97E2,8E0,3E0,1.7E1,8E0,4.5E1,2.58E2,1.187E3,2.93E2,4E0,2E0,6E0,1E0,2E0,1.3E1,4E0,4E0,4E0,7E0,3.8E1,2.29E2,2.9E1,1.156E3,3.1E1,2.44E2,4.9E1,1E0,3E0,1E0,1E0,5E0,1E0,1E0,1E0,1E1,3E0,2E0,2E0,1E0,3E0,3E0,1E0,3E0,4E0,1.2E1,2.6E1,2.23E2,6E0,2.3E1,6E0,1.149E3,7E0,2.7E1,4E0,2.37E2,7E0,4.6E1,3E0,4E0,1E0,4E0,6E0,2E0,1E0,1E0,1E0,1E0,2E0,1E0,2E0,1E0,3E0,3E0,9E0,3E0,2.3E1,2.15E2,8E0,1E0,5E0,2.2E1,1E0,4E0,2E0,1.019E3,1.3E2,4E0,3E0,9E0,1.8E1,1E0,3E0],"tree_param":{"num_deleted":"0","num_feature":"5","num_nodes":"99","size_leaf_vector":"1"}},{"base_weights":[4.7199225E-1,1.5384468E0,-5.5406494E0,2.9418206E0,-7.189209E0,-1.503389E1,1.1222859E1,4.0362537E-1,8.092118E0,1.4021869E1,-1.3369769E1,-7.986989E1,-1.1061471E1,1.6980644E2,1.0889183E0,2.2212222E0,-7.6028013E0,-6.339384E1,9.728154E0,-3.2209774E1,2.0007504E1,-5.0190662E1,-4.2700715E0,5.2034914E-1,-1.3355011E2,7.137877E1,-1.4046533E1,-1.4649995E1,6.699032E1,-1.8216604E1,1.3718589E1,1.3439896E0,3.3339638E1,-2.2139782E1,4.0460095E0,-2.3226835E1,9.4299965E0,6.346058E1,5.7040825E0,-2.6779737E1,1.8634682E1,5.791713E1,2.2416248E0,5.444928E1,-6.650132E1,2.1274982E1,-8.637581E0,-2.2367249E1,2.3234497E1,-4.408667E0,-4.6314575E1,-1.4200993E1,1.0458918E2,-6.866532E1,-1.2229188E1,-3.1627731E1,1.0006929E1,9.2377975E1,1.1108707E0,6.4146686E-1,-1.0001637E1,2.9193325E0,2.604131E1,-1.375048E0,-1.0622062E1,2.2891417E0,-1.0497813E1,9.648983E1,3.4113882E0,-2.1431115E0,4.6196737E0,1.2789721E1,-1.0726075E0,-6.978589E0,3.1680387E1,8.405726E0,-6.1905165E0,-1.2365625E1,3.9590263E1,1.4680862E1,-2.7776945E1,1.4333414E1,-1.0431128E1,1.5803033E1,-3.2194686E0,-1.3009919E0,-8.764271E0,-7.9722066E0,1.842773E1,5.648582E1,1.0978034E1,-4.110347E1,3.0707956E1,1.22549095E1,-4.269235E0,-1.6837204E1,-6.4417944E0,2.9957277E-1,7.266175E0,4.0545635E1,4.744739E0,-1.4851292E1,1.2561264E0],"categories":[],"categories_nodes":[],"categories_segments":[],"categories_sizes":[],"default_left":[0,0,0,0,0,0,0,0,0,0,0,0,0,0,0,0,0,0,0,0,0,0,0,0,0,0,0,0,0,0,0,0,0,0,0,0,0,0,0,0,0,0,0,0,0,0,0,0,0,0,0,0,0,0,0,0,0,0,0,0,0,0,0,0,0,0,0,0,0,0,0,0,0,0,0,0,0,0,0,0,0,0,0,0,0,0,0,0,0,0,0,0,0,0,0,0,0,0,0,0,0,0,0],"id":12,"left_children":[1,3,5,7,9,11,13,15,17,19,21,23,25,27,29,31,33,35,37,39,41,43,45,47,49,51,53,-1,-1,55,57,59,61,63,65,-1,-1,67,69,-1,71,73,75,77,79,81,83,85,87,-1,-1,-1,89,91,93,95,97,99,101,-1,-1,-1,-1,-1,-1,-1,-1,-1,-1,-1,-1,-1,-1,-1,-1,-1,-1,-1,-1,-1,-1,-1,-1,-1,-1,-1,-1,-1,-1,-1,-1,-1,-1,-1,-1,-1,-1,-1,-1,-1,-1,-1,-1],"loss_changes":[1.1704393E4,1.9005803E4,4.393223E4,1.7461543E4,2.8373184E4,4.444633E4,1.6052275E5,1.3055887E4,5.2193242E4,1.4204001E4,5.5740527E4,4.322315E4,4.2099516E4,8.108084E4,2.3413033E4,1.9910094E4,2.8199777E4,1.5736902E4,9.304641E4,1.9069332E4,2.950407E4,5.994358E4,1.5245478E4,3.119053E3,1.2587008E4,2.8606424E4,1.5240588E4,0E0,0E0,1.46998545E4,5.741687E4,1.968419E4,2.439977E4,1.7073855E4,1.3280764E4,0E0,0E0,3.9978272E5,5.0306516E4,0E0,2.2843872E3,5.6649887E4,1.8858959E4,4.2519637E4,9.186714E4,3.1368764E4,1.5458672E4,2.4367444E2,7.339081E3,0E0,0E0,0E0,2.1565121E4,7.246913E4,1.7367633E4,5.262676E3,1.6403547E3,2.4061516E4,8.1481455E3,0E0,0E0,0E0,0E0,0E0,0E0,0E0,0E0,0E0,0E0,0E0,0E0,0E0,0E0,0E0,0E0,0E0,0E0,0E0,0E0,0E0,0E0,0E0,0E0,0E0,0E0,0E0,0E0,0E0,0E0,0E0,0E0,0E0,0E0,0E0,0E0,0E0,0E0,0E0,0E0,0E0,0E0,0E0,0E0],"parents":[2147483647,0,0,1,1,2,2,3,3,4,4,5,5,6,6,7,7,8,8,9,9,10,10,11,11,12,12,13,13,14,14,15,15,16,16,17,17,18,18,19,19,20,20,21,21,22,22,23,23,24,24,25,25,26,26,29,29,30,30,31,31,32,32,33,33,34,34,37,37,38,38,40,40,41,41,42,42,43,43,44,44,45,45,46,46,47,47,48,48,52,52,53,53,54,54,55,55,56,56,57,57,58,58],"right_children":[2,4,6,8,10,12,14,16,18,20,22,24,26,28,30,32,34,36,38,40,42,44,46,48,50,52,54,-1,-1,56,58,60,62,64,66,-1,-1,68,70,-1,72,74,76,78,80,82,84,86,88,-1,-1,-1,90,92,94,96,98,100,102,-1,-1,-1,-1,-1,-1,-1,-1,-1,-1,-1,-1,-1,-1,-1,-1,-1,-1,-1,-1,-1,-1,-1,-1,-1,-1,-1,-1,-1,-1,-1,-1,-1,-1,-1,-1,-1,-1,-1,-1,-1,-1,-1,-1],"split_conditions":[2E0,8.9E1,8.8E1,8.1E1,2E0,3.5E1,3.6E1,4.8E1,2.8E1,1E0,3.5E1,8.3E1,3.6E1,3.3E1,2E0,4.7E1,5.3E1,8.6E1,3.1E1,9.3E1,3.2E1,2.9E1,3.8E1,2E0,2E0,7.9E1,3.7E1,-1.4649995E1,6.699032E1,3E0,4.2E1,3E0,7.7E1,7.4E1,7.6E1,-2.3226835E1,9.4299965E0,1E0,3.8E1,-2.6779737E1,2E1,9.1E1,9.2E1,1E0,1E0,9.4E1,1E0,3E0,6.4E1,-4.408667E0,-4.6314575E1,-1.4200993E1,8.3E1,3E0,3.9E1,4E1,9.4E1,9.1E1,4.3E1,6.4146686E-1,-1.0001637E1,2.9193325E0,2.604131E1,-1.375048E0,-1.0622062E1,2.2891417E0,-1.0497813E1,9.648983E1,3.4113882E0,-2.1431115E0,4.6196737E0,1.2789721E1,-1.0726075E0,-6.978589E0,3.1680387E1,8.405726E0,-6.1905165E0,-1.2365625E1,3.9590263E1,1.4680862E1,-2.7776945E1,1.4333414E1,-1.0431128E1,1.5803033E1,-3.2194686E0,-1.3009919E0,-8.764271E0,-7.9722066E0,1.842773E1,5.648582E1,1.0978034E1,-4.110347E1,3.0707956E1,1.22549095E1,-4.269235E0,-1.6837204E1,-6.4417944E0,2.9957277E-1,7.266175E0,4.0545635E1,4.744739E0,-1.4851292E1,1.2561264E0],"split_indices":[0,2,2,2,1,3,3,3,3,0,3,2,3,3,1,3,3,2,3,2,3,3,3,1,1,2,3,0,0,0,3,1,2,2,3,0,0,0,3,0,3,2,2,0,0,2,0,0,2,0,0,0,2,0,3,3,2,2,3,0,0,0,0,0,0,0,0,0,0,0,0,0,0,0,0,0,0,0,0,0,0,0,0,0,0,0,0,0,0,0,0,0,0,0,0,0,0,0,0,0,0,0,0],"split_type":[0,0,0,0,0,0,0,0,0,0,0,0,0,0,0,0,0,0,0,0,0,0,0,0,0,0,0,0,0,0,0,0,0,0,0,0,0,0,0,0,0,0,0,0,0,0,0,0,0,0,0,0,0,0,0,0,0,0,0,0,0,0,0,0,0,0,0,0,0,0,0,0,0,0,0,0,0,0,0,0,0,0,0,0,0,0,0,0,0,0,0,0,0,0,0,0,0,0,0,0,0,0,0],"sum_hessian":[1.823E3,1.549E3,2.74E2,1.335E3,2.14E2,1.75E2,9.9E1,8.95E2,4.4E2,4.8E1,1.66E2,9E0,1.66E2,5E0,9.4E1,7.3E2,1.65E2,9E0,4.31E2,5E0,4.3E1,3.2E1,1.34E2,4E0,5E0,5E0,1.61E2,1E0,4E0,3.7E1,5.7E1,7.11E2,1.9E1,7.3E1,9.2E1,8E0,1E0,2.9E1,4.02E2,2E0,3E0,1.3E1,3E1,4E0,2.8E1,1.9E1,1.15E2,2E0,2E0,1E0,4E0,1E0,4E0,4E0,1.57E2,2.5E1,1.2E1,7E0,5E1,6.96E2,1.5E1,1.4E1,5E0,3.2E1,4.1E1,8.5E1,7E0,4E0,2.5E1,1.73E2,2.29E2,1E0,2E0,5E0,8E0,1.4E1,1.6E1,2E0,2E0,5E0,2.3E1,1.3E1,6E0,3E0,1.12E2,1E0,1E0,1E0,1E0,1E0,3E0,3E0,1E0,5E0,1.52E2,6E0,1.9E1,8E0,4E0,4E0,3E0,2E0,4.8E1],"tree_param":{"num_deleted":"0","num_feature":"5","num_nodes":"103","size_leaf_vector":"1"}},{"base_weights":[4.3964943E-1,2.959129E1,2.6263306E-1,9.658788E0,5.316925E-1,1.2640578E0,-3.4822829E0,5.751345E-1,1.5290999E1,5.8332686E0,-1.21249695E1,9.4462276E-1,-5.524044E1,3.0109402E1,-1.4366353E1,-2.2141185E0,3.3285423E1,-5.4603207E1,-6.263591E0,-2.3112283E0,4.0538898E0,4.4482544E1,-9.008737E1,1.8376732E1,1.2029541E2,6.509091E0,-3.40446E1,-2.6737444E1,-1.8448648E-1,8.798089E1,8.474541E0,-6.7001015E1,-6.2429605E0,2.7502495E1,-8.681345E0,1.5671095E0,-4.3483415E0,-5.152813E0,2.5010626E0,-1.0383944E1,3.0401089E1,-3.619455E1,-1.110132E1,-3.9717324E0,1.174213E1,6.7017815E1,1.16018715E1,-2.61725E0,1.6535076E1,-1.2282889E1,6.2756085E0,-1.3093547E1,-1.6120485E0,1.792462E1,-7.4645734E-1,4.4804497E1,4.213431E0,1.9586899E1,-4.5459647E0,-3.7427447E0,-2.2933426E1,9.1527405E0,-1.59494295E1,2.0707256E1,1.797773E0,-9.682756E0,-1.5049026E0],"categories":[],"categories_nodes":[],"categories_segments":[],"categories_sizes":[],"default_left":[0,0,0,0,0,0,0,0,0,0,0,0,0,0,0,0,0,0,0,0,0,0,0,0,0,0,0,0,0,0,0,0,0,0,0,0,0,0,0,0,0,0,0,0,0,0,0,0,0,0,0,0,0,0,0,0,0,0,0,0,0,0,0,0,0,0,0],"id":13,"left_children":[1,3,5,-1,-1,7,9,11,13,15,17,19,21,23,25,27,29,31,33,35,37,39,41,43,45,47,49,51,53,55,57,59,61,63,65,-1,-1,-1,-1,-1,-1,-1,-1,-1,-1,-1,-1,-1,-1,-1,-1,-1,-1,-1,-1,-1,-1,-1,-1,-1,-1,-1,-1,-1,-1,-1,-1],"loss_changes":[9.404647E3,7.3999023E2,6.807358E3,0E0,0E0,1.3829316E4,3.0906594E4,2.8223469E4,2.987736E4,4.0943547E4,4.9205215E4,1.3756824E4,3.528267E4,4.5404883E4,9.669818E3,7.162427E3,5.6250184E4,1.3971172E4,1.4607063E4,6.1030805E4,6.3337793E4,1.6998408E4,6.8914062E3,2.7433117E4,3.3436055E4,9.366315E3,5.4063535E3,3.7388423E3,1.8649836E4,5.688692E4,4.1261758E4,8.829797E3,1.1968857E4,1.0303906E4,1.4106291E4,0E0,0E0,0E0,0E0,0E0,0E0,0E0,0E0,0E0,0E0,0E0,0E0,0E0,0E0,0E0,0E0,0E0,0E0,0E0,0E0,0E0,0E0,0E0,0E0,0E0,0E0,0E0,0E0,0E0,0E0,0E0,0E0],"parents":[2147483647,0,0,1,1,2,2,5,5,6,6,7,7,8,8,9,9,10,10,11,11,12,12,13,13,14,14,15,15,16,16,17,17,18,18,19,19,20,20,21,21,22,22,23,23,24,24,25,25,26,26,27,27,28,28,29,29,30,30,31,31,32,32,33,33,34,34],"right_children":[2,4,6,-1,-1,8,10,12,14,16,18,20,22,24,26,28,30,32,34,36,38,40,42,44,46,48,50,52,54,56,58,60,62,64,66,-1,-1,-1,-1,-1,-1,-1,-1,-1,-1,-1,-1,-1,-1,-1,-1,-1,-1,-1,-1,-1,-1,-1,-1,-1,-1,-1,-1,-1,-1,-1,-1],"split_conditions":[1.5E1,2E0,5.3E1,9.658788E0,5.316925E-1,9.5E1,8.3E1,9.4E1,4.3E1,8.1E1,5.4E1,2E0,3.9E1,2E0,9.8E1,6.5E1,5.7E1,9.1E1,5.5E1,3.2E1,3.2E1,3.8E1,4.4E1,3.5E1,9.6E1,9.7E1,3E0,6.2E1,6.6E1,8.2E1,2E0,8.4E1,9.4E1,8.5E1,5.7E1,1.5671095E0,-4.3483415E0,-5.152813E0,2.5010626E0,-1.0383944E1,3.0401089E1,-3.619455E1,-1.110132E1,-3.9717324E0,1.174213E1,6.7017815E1,1.16018715E1,-2.61725E0,1.6535076E1,-1.2282889E1,6.2756085E0,-1.3093547E1,-1.6120485E0,1.792462E1,-7.4645734E-1,4.4804497E1,4.213431E0,1.9586899E1,-4.5459647E0,-3.7427447E0,-2.2933426E1,9.1527405E0,-1.59494295E1,2.0707256E1,1.797773E0,-9.682756E0,-1.5049026E0],"split_indices":[3,4,3,0,0,2,2,2,3,2,3,1,3,4,2,2,3,2,3,3,3,3,3,3,2,2,0,3,2,2,1,2,2,2,3,0,0,0,0,0,0,0,0,0,0,0,0,0,0,0,0,0,0,0,0,0,0,0,0,0,0,0,0,0,0,0,0],"split_type":[0,0,0,0,0,0,0,0,0,0,0,0,0,0,0,0,0,0,0,0,0,0,0,0,0,0,0,0,0,0,0,0,0,0,0,0,0,0,0,0,0,0,0,0,0,0,0,0,0,0,0,0,0,0,0,0,0,0,0,0,0,0,0,0,0,0,0],"sum_hessian":[1.823E3,1E1,1.813E3,9E0,1E0,1.431E3,3.82E2,1.365E3,6.6E1,1.84E2,1.98E2,1.357E3,8E0,4.4E1,2.2E1,1.43E2,4.1E1,2.3E1,1.75E2,6.63E2,6.94E2,2E0,6E0,4E1,4E0,1.1E1,1.1E1,1E1,1.33E2,1.2E1,2.9E1,1.8E1,5E0,1.1E1,1.64E2,4.1E2,2.53E2,1.16E2,5.78E2,1E0,1E0,3E0,3E0,1.6E1,2.4E1,1E0,3E0,9E0,2E0,1E1,1E0,5E0,5E0,4E0,1.29E2,6E0,6E0,8E0,2.1E1,3E0,1.5E1,3E0,2E0,3E0,8E0,2.1E1,1.43E2],"tree_param":{"num_deleted":"0","num_feature":"5","num_nodes":"67","size_leaf_vector":"1"}},{"base_weights":[3.7143278E-1,2.765559E0,-1.0374452E0,3.6207595E0,-6.101661E1,-5.2736487E0,2.3637674E0,8.230065E-1,1.6390306E1,-1.6625086E1,-7.132489E1,-3.6064434E1,-2.2294307E0,2.9512821E1,-9.572678E-2,4.6104603E0,-1.2470872E1,2.6164244E1,-6.606935E1,-1.452491E0,-6.028798E0,-5.437198E0,-2.3151314E1,2.057847E1,-3.9106804E1,4.6836727E1,-3.8492165E0,5.613316E1,2.2883816E1,-2.9690645E1,5.8281195E-1,1.1236469E0,3.580347E1,2.4216917E1,-2.5784496E1,1.4297527E1,6.1234856E1,-8.329325E1,1.9108093E1,-5.124303E0,1.4384615E1,-9.77987E0,-4.3480007E1,-2.024239E1,9.453855E1,2.4751192E1,-4.222794E0,3.0554369E1,-5.533025E1,5.043127E0,-8.115494E0,1.0293394E0,-2.5000825E0,4.1478672E1,4.635516E0,-1.4465055E1,1.3671843E1,-9.997778E0,1.6704264E1,8.112704E0,-1.6628468E1,-2.6395725E1,2.300758E1,-2.710031E1,-1.932335E0,-1.2827656E1,2.1426298E1,6.2527925E-1,-4.482713E0,-5.079097E0,-1.4096893E1,4.4701366E1,-1.1408425E1,-5.3135616E-1,-4.680188E0,-4.628398E-1,1.49592285E1,-3.1989664E1,4.324539E0,5.7035315E-1,2.4788185E1,-1.1041443E1,-1.2960632E0],"categories":[],"categories_nodes":[],"categories_segments":[],"categories_sizes":[],"default_left":[0,0,0,0,0,0,0,0,0,0,0,0,0,0,0,0,0,0,0,0,0,0,0,0,0,0,0,0,0,0,0,0,0,0,0,0,0,0,0,0,0,0,0,0,0,0,0,0,0,0,0,0,0,0,0,0,0,0,0,0,0,0,0,0,0,0,0,0,0,0,0,0,0,0,0,0,0,0,0,0,0,0,0],"id":14,"left_children":[1,3,5,7,9,11,13,15,17,19,21,23,25,27,29,31,33,35,37,-1,-1,-1,-1,39,41,43,45,-1,47,-1,49,51,53,55,57,59,61,63,65,-1,-1,67,69,-1,71,-1,73,75,77,79,81,-1,-1,-1,-1,-1,-1,-1,-1,-1,-1,-1,-1,-1,-1,-1,-1,-1,-1,-1,-1,-1,-1,-1,-1,-1,-1,-1,-1,-1,-1,-1,-1],"loss_changes":[6.155279E3,3.7094387E4,1.656752E4,2.3851504E4,2.932621E3,4.7911332E4,4.260396E4,2.7699621E4,9.844331E4,2.5400269E1,7.784922E2,8.731875E3,3.7295883E4,5.1088137E4,3.937196E4,4.651085E4,6.0215E4,4.407118E4,2.0663727E4,0E0,0E0,0E0,0E0,3.9112603E3,5.2178906E3,8.8171875E4,1.496201E4,0E0,3.2887727E4,0E0,2.2659686E4,8.452067E3,8.752787E4,5.324467E4,5.714849E4,7.436755E4,6.902368E4,5.370508E3,1.2763197E4,0E0,0E0,4.5988464E2,2.7452734E3,0E0,8.509047E4,0E0,1.2580444E4,2.9826738E4,1.9427488E4,9.3936414E4,2.1400043E4,0E0,0E0,0E0,0E0,0E0,0E0,0E0,0E0,0E0,0E0,0E0,0E0,0E0,0E0,0E0,0E0,0E0,0E0,0E0,0E0,0E0,0E0,0E0,0E0,0E0,0E0,0E0,0E0,0E0,0E0,0E0,0E0],"parents":[2147483647,0,0,1,1,2,2,3,3,4,4,5,5,6,6,7,7,8,8,9,9,10,10,11,11,12,12,13,13,14,14,15,15,16,16,17,17,18,18,23,23,24,24,25,25,26,26,28,28,30,30,31,31,32,32,33,33,34,34,35,35,36,36,37,37,38,38,41,41,42,42,44,44,46,46,47,47,48,48,49,49,50,50],"right_children":[2,4,6,8,10,12,14,16,18,20,22,24,26,28,30,32,34,36,38,-1,-1,-1,-1,40,42,44,46,-1,48,-1,50,52,54,56,58,60,62,64,66,-1,-1,68,70,-1,72,-1,74,76,78,80,82,-1,-1,-1,-1,-1,-1,-1,-1,-1,-1,-1,-1,-1,-1,-1,-1,-1,-1,-1,-1,-1,-1,-1,-1,-1,-1,-1,-1,-1,-1,-1,-1],"split_conditions":[3.4E1,3E0,8.2E1,3.2E1,3.2E1,3.6E1,8.3E1,2E0,9E1,7.2E1,1E0,5.3E1,3.7E1,1E0,1E0,8E1,1E0,8.5E1,2E0,-1.452491E0,-6.028798E0,-5.437198E0,-2.3151314E1,5.1E1,1E0,2E0,5.1E1,5.613316E1,2E0,-2.9690645E1,5.3E1,6.4E1,8.2E1,2.5E1,2E0,8.4E1,1E0,2E0,9.2E1,-5.124303E0,1.4384615E1,7.6E1,7E1,-2.024239E1,8E1,2.4751192E1,8E1,4.3E1,5.6E1,3E0,5.4E1,1.0293394E0,-2.5000825E0,4.1478672E1,4.635516E0,-1.4465055E1,1.3671843E1,-9.997778E0,1.6704264E1,8.112704E0,-1.6628468E1,-2.6395725E1,2.300758E1,-2.710031E1,-1.932335E0,-1.2827656E1,2.1426298E1,6.2527925E-1,-4.482713E0,-5.079097E0,-1.4096893E1,4.4701366E1,-1.1408425E1,-5.3135616E-1,-4.680188E0,-4.628398E-1,1.49592285E1,-3.1989664E1,4.324539E0,5.7035315E-1,2.4788185E1,-1.1041443E1,-1.2960632E0],"split_indices":[3,1,2,3,3,3,2,1,2,2,0,2,3,4,4,2,0,2,0,0,0,0,0,2,0,1,2,0,4,0,3,2,2,3,4,2,0,4,2,0,0,2,2,0,2,0,2,3,3,1,3,0,0,0,0,0,0,0,0,0,0,0,0,0,0,0,0,0,0,0,0,0,0,0,0,0,0,0,0,0,0,0,0],"split_type":[0,0,0,0,0,0,0,0,0,0,0,0,0,0,0,0,0,0,0,0,0,0,0,0,0,0,0,0,0,0,0,0,0,0,0,0,0,0,0,0,0,0,0,0,0,0,0,0,0,0,0,0,0,0,0,0,0,0,0,0,0,0,0,0,0,0,0,0,0,0,0,0,0,0,0,0,0,0,0,0,0,0,0],"sum_hessian":[1.823E3,6.75E2,1.148E3,6.67E2,8E0,5.11E2,6.37E2,5.48E2,1.19E2,2E0,6E0,4.5E1,4.66E2,5.2E1,5.85E2,4.27E2,1.21E2,1.07E2,1.2E1,1E0,1E0,1E0,5E0,2E0,4.3E1,1.4E1,4.52E2,1E0,5.1E1,3E0,5.82E2,3.85E2,4.2E1,3.2E1,8.9E1,8.1E1,2.6E1,1E1,2E0,1E0,1E0,6E0,3.7E1,4E0,1E1,1E0,4.51E2,4.7E1,4E0,3.85E2,1.97E2,3.1E2,7.5E1,6E0,3.6E1,7E0,2.5E1,8.2E1,7E0,6.9E1,1.2E1,2E0,2.4E1,9E0,1E0,1E0,1E0,2E0,4E0,5E0,3.2E1,7E0,3E0,3.72E2,7.9E1,1.8E1,2.9E1,2E0,2E0,3.71E2,1.4E1,2.2E1,1.75E2],"tree_param":{"num_deleted":"0","num_feature":"5","num_nodes":"83","size_leaf_vector":"1"}},{"base_weights":[2.749504E-1,4.0828952E-1,-2.6660471E1,1.9100985E-1,6.592249E1,9.798569E0,-1.3956926E1,3.1990063E-1,-2.8897738E1,9.888176E1,2.641042E-3,5.7191896E0,-2.6996431E0,-2.3808254E-1,6.2576575E0,5.7699556E0,-4.8146908E1,1.1826227E1,4.1589718E1,-5.3636694E0,5.3648577E0,2.0429441E-1,-1.7179665E1,2.4180895E1,8.285391E-1,-2.698029E1,-4.769642E0,3.2037723E-1,-1.58462E0,2.8136772E1,-8.436176E0,2.9492862E0,4.095681E1,-7.7219815E0,2.427357E0,6.4114366E0,-1.247894E1],"categories":[],"categories_nodes":[],"categories_segments":[],"categories_sizes":[],"default_left":[0,0,0,0,0,0,0,0,0,0,0,0,0,0,0,0,0,0,0,0,0,0,0,0,0,0,0,0,0,0,0,0,0,0,0,0,0],"id":15,"left_children":[1,3,5,7,9,11,-1,13,15,17,19,-1,-1,21,23,-1,25,-1,-1,-1,-1,27,29,31,33,-1,35,-1,-1,-1,-1,-1,-1,-1,-1,-1,-1],"loss_changes":[6.5618647E3,2.5837996E4,6.9734067E3,6.799175E3,1.303576E4,8.682137E2,0E0,5.978446E3,8.337861E3,3.9894531E3,1.2789031E3,0E0,0E0,1.2369543E4,1.5062609E4,0E0,1.0446782E4,0E0,0E0,0E0,0E0,7.629378E3,5.362969E4,5.669339E4,2.3363174E4,0E0,4.739751E3,0E0,0E0,0E0,0E0,0E0,0E0,0E0,0E0,0E0,0E0],"parents":[2147483647,0,0,1,1,2,2,3,3,4,4,5,5,7,7,8,8,9,9,10,10,13,13,14,14,16,16,21,21,22,22,23,23,24,24,26,26],"right_children":[2,4,6,8,10,12,-1,14,16,18,20,-1,-1,22,24,-1,26,-1,-1,-1,-1,28,30,32,34,-1,36,-1,-1,-1,-1,-1,-1,-1,-1,-1,-1],"split_conditions":[1E1,7E0,2E0,6E0,4.1E1,7.2E1,-1.3956926E1,9.2E1,4.5E1,6.6E1,7E1,5.7191896E0,-2.6996431E0,9.1E1,3.6E1,5.7699556E0,2E0,1.1826227E1,4.1589718E1,-5.3636694E0,5.3648577E0,2E0,3.2E1,2E0,4E1,-2.698029E1,2E0,3.2037723E-1,-1.58462E0,2.8136772E1,-8.436176E0,2.9492862E0,4.095681E1,-7.7219815E0,2.427357E0,6.4114366E0,-1.247894E1],"split_indices":[4,4,1,4,3,2,0,2,2,2,2,0,0,2,3,0,1,0,0,0,0,0,3,0,3,0,0,0,0,0,0,0,0,0,0,0,0],"split_type":[0,0,0,0,0,0,0,0,0,0,0,0,0,0,0,0,0,0,0,0,0,0,0,0,0,0,0,0,0,0,0,0,0,0,0,0,0],"sum_hessian":[1.823E3,1.815E3,8E0,1.81E3,5E0,3E0,5E0,1.803E3,7E0,3E0,2E0,2E0,1E0,1.649E3,1.54E2,2E0,5E0,2E0,1E0,1E0,1E0,1.608E3,4.1E1,3.5E1,1.19E2,2E0,3E0,1.39E3,2.18E2,3E0,3.8E1,3.2E1,3E0,2.5E1,9.4E1,2E0,1E0],"tree_param":{"num_deleted":"0","num_feature":"5","num_nodes":"37","size_leaf_vector":"1"}},{"base_weights":[2.3207907E-1,-1.6031692E0,1.6706294E0,7.39108E-2,-1.673974E1,1.4132987E0,8.869196E1,-1.4058793E0,8.159246E0,-3.231625E1,6.424265E0,1.9724097E0,-3.8943645E1,3.5351257E1,4.5601273E0,-2.0659204E0,1.9303085E1,1.208714E1,-3.3113976E1,3.2402668E0,-3.8465904E1,-3.026414E-1,3.3252792E1,9.3278456E-1,1.2830619E1,9.516077E0,-5.3364315E1,-9.6555746E-1,-4.758342E1,4.659098E1,-2.4041641E1,2.2780321E1,1.5694157E0,-4.358379E1,9.167152E0,-8.7214985E0,1.3045895E1,-4.618112E1,-8.679924E-1,1.1851394E1,-3.824617E1,4.764225E0,-3.070633E0,-1.934278E1,2.3848156E1,-7.5430374E1,-7.3857603E0,-4.764758E-1,5.261011E0,-7.802273E-1,-2.7658363E1,3.259492E1,5.9411776E-1,-9.893759E0,5.7781863E0,4.950395E0,5.0509583E1,-1.22202E1,2.047394E0,-6.696029E0,-1.9375015E1,-5.5175037E0,3.0907898E0,-1.5828202E1,-3.9796839E0,1.692764E1,-2.1680347E1,-8.650354E0,7.8651547E0,-1.691075E1,-1.8092663E0,3.784224E-1,5.275152E0,-2.5276932E-1,-6.527872E0,6.7501836E0,-1.5978246E1,3.8801647E1,4.4868593E0,-2.721083E1,4.721457E0,7.5080066E0,-1.1200887E1],"categories":[],"categories_nodes":[],"categories_segments":[],"categories_sizes":[],"default_left":[0,0,0,0,0,0,0,0,0,0,0,0,0,0,0,0,0,0,0,0,0,0,0,0,0,0,0,0,0,0,0,0,0,0,0,0,0,0,0,0,0,0,0,0,0,0,0,0,0,0,0,0,0,0,0,0,0,0,0,0,0,0,0,0,0,0,0,0,0,0,0,0,0,0,0,0,0,0,0,0,0,0,0],"id":16,"left_children":[1,3,5,7,9,11,13,15,17,19,21,23,25,-1,-1,27,29,31,33,35,37,39,-1,41,43,-1,45,47,49,51,53,55,57,59,-1,61,-1,63,65,67,69,71,73,75,77,79,81,-1,-1,-1,-1,-1,-1,-1,-1,-1,-1,-1,-1,-1,-1,-1,-1,-1,-1,-1,-1,-1,-1,-1,-1,-1,-1,-1,-1,-1,-1,-1,-1,-1,-1,-1,-1],"loss_changes":[4.8182153E3,2.03602E4,2.2782959E4,8.661877E3,2.9072754E4,2.3114668E4,4.634676E3,8.405165E3,1.8557334E4,1.062034E4,2.3213162E4,1.1366808E4,1.5959023E4,0E0,0E0,2.9705002E4,2.3593062E4,1.1548445E4,7.998049E3,4.230576E3,1.1853027E4,1.5210615E4,0E0,1.4141716E4,3.1654793E4,0E0,1.1617672E4,6.721709E3,2.7854408E4,3.3006555E4,3.7313306E3,4.3842305E4,1.2060648E4,2.577252E3,0E0,1.4772501E3,0E0,6.663461E3,3.6803695E4,1.5368088E4,4.330743E3,2.1127965E4,1.8761414E4,3.3841047E4,5.9974824E4,1.2566398E4,5.788254E3,0E0,0E0,0E0,0E0,0E0,0E0,0E0,0E0,0E0,0E0,0E0,0E0,0E0,0E0,0E0,0E0,0E0,0E0,0E0,0E0,0E0,0E0,0E0,0E0,0E0,0E0,0E0,0E0,0E0,0E0,0E0,0E0,0E0,0E0,0E0,0E0],"parents":[2147483647,0,0,1,1,2,2,3,3,4,4,5,5,6,6,7,7,8,8,9,9,10,10,11,11,12,12,15,15,16,16,17,17,18,18,19,19,20,20,21,21,23,23,24,24,26,26,27,27,28,28,29,29,30,30,31,31,32,32,33,33,35,35,37,37,38,38,39,39,40,40,41,41,42,42,43,43,44,44,45,45,46,46],"right_children":[2,4,6,8,10,12,14,16,18,20,22,24,26,-1,-1,28,30,32,34,36,38,40,-1,42,44,-1,46,48,50,52,54,56,58,60,-1,62,-1,64,66,68,70,72,74,76,78,80,82,-1,-1,-1,-1,-1,-1,-1,-1,-1,-1,-1,-1,-1,-1,-1,-1,-1,-1,-1,-1,-1,-1,-1,-1,-1,-1,-1,-1,-1,-1,-1,-1,-1,-1,-1,-1],"split_conditions":[7.8E1,7.6E1,7E0,7.3E1,4.6E1,3E0,2E0,4E0,3E0,1E0,3E0,2E0,7.9E1,3.5351257E1,4.5601273E0,3E0,6.7E1,4E1,6.3E1,3.4E1,2E0,2E0,3.3252792E1,4.1E1,4.2E1,9.516077E0,5.6E1,3E0,5.8E1,6E0,1.4E1,3.9E1,4.2E1,4.8E1,9.167152E0,2E0,1.3045895E1,4.2E1,4E0,2E0,5.7E1,3.8E1,9.4E1,3.6E1,4.3E1,8.9E1,2E0,-4.764758E-1,5.261011E0,-7.802273E-1,-2.7658363E1,3.259492E1,5.9411776E-1,-9.893759E0,5.7781863E0,4.950395E0,5.0509583E1,-1.22202E1,2.047394E0,-6.696029E0,-1.9375015E1,-5.5175037E0,3.0907898E0,-1.5828202E1,-3.9796839E0,1.692764E1,-2.1680347E1,-8.650354E0,7.8651547E0,-1.691075E1,-1.8092663E0,3.784224E-1,5.275152E0,-2.5276932E-1,-6.527872E0,6.7501836E0,-1.5978246E1,3.8801647E1,4.4868593E0,-2.721083E1,4.721457E0,7.5080066E0,-1.1200887E1],"split_indices":[2,2,4,2,3,4,1,4,1,0,4,4,2,0,0,4,2,3,3,3,4,4,0,3,3,0,3,1,2,4,4,3,3,3,0,1,0,3,4,1,3,3,2,3,3,2,0,0,0,0,0,0,0,0,0,0,0,0,0,0,0,0,0,0,0,0,0,0,0,0,0,0,0,0,0,0,0,0,0,0,0,0,0],"split_type":[0,0,0,0,0,0,0,0,0,0,0,0,0,0,0,0,0,0,0,0,0,0,0,0,0,0,0,0,0,0,0,0,0,0,0,0,0,0,0,0,0,0,0,0,0,0,0,0,0,0,0,0,0,0,0,0,0,0,0,0,0,0,0,0,0,0,0,0,0,0,0,0,0,0,0,0,0,0,0,0,0,0,0],"sum_hessian":[1.823E3,8.01E2,1.022E3,7.22E2,7.9E1,1.02E3,2E0,6.11E2,1.11E2,4.7E1,3.2E1,1.007E3,1.3E1,1E0,1E0,5.93E2,1.8E1,1.02E2,9E0,7E0,4E1,3.1E1,1E0,9.2E2,8.7E1,2E0,1.1E1,5.8E2,1.3E1,1.1E1,7E0,5E1,5.2E1,8E0,1E0,6E0,1E0,3.3E1,7E0,2.4E1,7E0,4.7E2,4.5E2,2.2E1,6.5E1,7E0,4E0,5.62E2,1.8E1,7E0,6E0,4E0,7E0,6E0,1E0,4.9E1,1E0,5E0,4.7E1,5E0,3E0,4E0,2E0,2.7E1,6E0,4E0,3E0,6E0,1.8E1,4E0,3E0,3.7E2,1E2,4.03E2,4.7E1,1E1,1.2E1,4E0,6.1E1,6E0,1E0,2E0,2E0],"tree_param":{"num_deleted":"0","num_feature":"5","num_nodes":"83","size_leaf_vector":"1"}},{"base_weights":[2.1168111E-1,2.0846447E1,8.643629E-2,2.2717121E1,3.2095644E-1,-3.7686038E-1,5.012864E0,1.3377642E1,1.0014579E1,2.8662002E-1,-7.3592176E0,9.362953E0,-9.231016E0,5.393257E0,5.4333496E0,-3.4008786E-1,1.7937399E1,2.319614E1,-8.492085E0,3.164582E1,3.165927E0,-2.180944E1,-6.263481E-1,5.9400636E-1,2.3690004E0,4.118296E-1,-1.4683662E1,1.7834567E2,4.476775E0,-1.1109014E1,2.7423958E1,-1.03087225E1,6.834319E1,-3.6912598E1,1.367125E1,1.9825384E1,-3.8751682E1,1.1619338E2,-1.7285055E1,-7.7942926E-1,8.942781E-1,-1.0569011E1,1.5503203E0,8.841916E1,1.2392167E1,-1.9433216E1,4.693979E0,-6.43924E0,-1.8445114E0,2.011784E1,2.572171E-1,1.1272247E1,-1.701568E1,2.6539414E0,3.0124197E1,-2.4869211E1,2.5260431E1,8.039972E0,-2.2058055E0,2.1701982E0,1.0528643E1,6.9807315E0,-1.4184203E1,-2.215649E1,7.444351E1,-7.7388573E0,4.532946E0],"categories":[],"categories_nodes":[],"categories_segments":[],"categories_sizes":[],"default_left":[0,0,0,0,0,0,0,0,0,0,0,0,0,0,0,0,0,0,0,0,0,0,0,0,0,0,0,0,0,0,0,0,0,0,0,0,0,0,0,0,0,0,0,0,0,0,0,0,0,0,0,0,0,0,0,0,0,0,0,0,0,0,0,0,0,0,0],"id":17,"left_children":[1,3,5,7,-1,9,11,13,-1,15,17,19,21,-1,23,25,27,-1,29,31,33,35,37,-1,-1,39,41,43,45,47,49,51,53,55,57,59,61,63,65,-1,-1,-1,-1,-1,-1,-1,-1,-1,-1,-1,-1,-1,-1,-1,-1,-1,-1,-1,-1,-1,-1,-1,-1,-1,-1,-1,-1],"loss_changes":[4.712139E3,3.8264648E2,4.142158E3,5.494658E2,0E0,7.6876875E3,9.752525E3,1.5812158E2,0E0,1.6775914E4,1.4470664E4,1.6470312E4,3.9909663E3,0E0,1.8391014E1,1.5806342E4,1.1147974E5,0E0,1.374518E4,4.0734688E4,4.050323E4,1.1349076E4,4.6767918E4,0E0,0E0,1.0779529E4,2.9956877E4,5.1622305E4,3.8917812E4,6.7513477E3,1.0472298E4,3.1020473E4,2.5825191E4,1.1836809E5,2.1174266E4,7.07478E2,6.9189004E3,9.355833E4,6.179837E3,0E0,0E0,0E0,0E0,0E0,0E0,0E0,0E0,0E0,0E0,0E0,0E0,0E0,0E0,0E0,0E0,0E0,0E0,0E0,0E0,0E0,0E0,0E0,0E0,0E0,0E0,0E0,0E0],"parents":[2147483647,0,0,1,1,2,2,3,3,5,5,6,6,7,7,9,9,10,10,11,11,12,12,14,14,15,15,16,16,18,18,19,19,20,20,21,21,22,22,25,25,26,26,27,27,28,28,29,29,30,30,31,31,32,32,33,33,34,34,35,35,36,36,37,37,38,38],"right_children":[2,4,6,8,-1,10,12,14,-1,16,18,20,22,-1,24,26,28,-1,30,32,34,36,38,-1,-1,40,42,44,46,48,50,52,54,56,58,60,62,64,66,-1,-1,-1,-1,-1,-1,-1,-1,-1,-1,-1,-1,-1,-1,-1,-1,-1,-1,-1,-1,-1,-1,-1,-1,-1,-1,-1,-1],"split_conditions":[1.5E1,2E0,9.2E1,4.8E1,3.2095644E-1,8.9E1,9.9E1,4.5E1,1.0014579E1,8.8E1,2.7E1,3.6E1,3.9E1,5.393257E0,4.7E1,8.7E1,1E0,2.319614E1,3E0,3.3E1,4E1,1E2,4E1,5.9400636E-1,2.3690004E0,2E0,4.4E1,2E0,3.2E1,3.7E1,9E1,3E1,2E0,9.6E1,5.6E1,3.3E1,2E1,1E2,5.9E1,-7.7942926E-1,8.942781E-1,-1.0569011E1,1.5503203E0,8.841916E1,1.2392167E1,-1.9433216E1,4.693979E0,-6.43924E0,-1.8445114E0,2.011784E1,2.572171E-1,1.1272247E1,-1.701568E1,2.6539414E0,3.0124197E1,-2.4869211E1,2.5260431E1,8.039972E0,-2.2058055E0,2.1701982E0,1.0528643E1,6.9807315E0,-1.4184203E1,-2.215649E1,7.444351E1,-7.7388573E0,4.532946E0],"split_indices":[3,4,2,2,0,2,2,2,0,2,3,3,3,0,2,2,0,0,0,3,3,2,3,0,0,1,3,1,3,3,2,3,1,2,3,3,3,2,3,0,0,0,0,0,0,0,0,0,0,0,0,0,0,0,0,0,0,0,0,0,0,0,0,0,0,0,0],"split_type":[0,0,0,0,0,0,0,0,0,0,0,0,0,0,0,0,0,0,0,0,0,0,0,0,0,0,0,0,0,0,0,0,0,0,0,0,0,0,0,0,0,0,0,0,0,0,0,0,0,0,0,0,0,0,0,0,0,0,0,0,0,0,0,0,0,0,0],"sum_hessian":[1.823E3,1E1,1.813E3,9E0,1E0,1.658E3,1.55E2,6E0,3E0,1.515E3,1.43E2,1.19E2,3.6E1,3E0,3E0,1.464E3,5.1E1,1E0,1.42E2,2.5E1,9.4E1,1.4E1,2.2E1,2E0,1E0,1.392E3,7.2E1,3E0,4.8E1,1.33E2,9E0,1.2E1,1.3E1,1.9E1,7.5E1,4E0,1E1,2E0,2E1,6.41E2,7.51E2,3.5E1,3.7E1,1E0,2E0,6E0,4.2E1,4.2E1,9.1E1,3E0,6E0,6E0,6E0,5E0,8E0,1.4E1,5E0,4.6E1,2.9E1,3E0,1E0,1E0,9E0,1E0,1E0,1.6E1,4E0],"tree_param":{"num_deleted":"0","num_feature":"5","num_nodes":"67","size_leaf_vector":"1"}},{"base_weights":[2.6823077E-1,2.2298377E0,-8.8609E-1,2.8766692E0,-4.60272E1,-1.54365E0,1.1975638E1,9.150257E-1,1.1827216E1,-6.5506214E-1,-5.123471E1,-6.414682E0,1.802792E-1,5.2064587E1,-8.383984E0,3.65045E0,-8.688881E0,1.859247E1,-4.5286213E1,-2.9717667E1,-2.3157171E1,-1.6936466E1,5.5582726E-1,2.0227064E1,-8.887695E-1,2.0439978E1,9.299342E1,-2.1339323E1,2.5355425E1,1.6164544E-1,2.061434E1,1.3823416E1,-1.6846848E1,1.567676E1,3.4625015E1,-6.031631E1,-1.769838E1,-2.8054628E0,-1.1268853E1,-2.3125416E1,3.7596725E1,1.3304008E1,-2.1039035E0,1.3798312E1,2.9117542E1,-3.0212814E1,5.5822816E-2,5.593698E1,-4.0443226E1,-9.090161E0,1.3914151E2,-2.321229E1,-1.4053006E1,4.2411972E1,-1.5096529E1,9.35867E-1,-5.9519763E0,2.2352722E1,3.850455E0,-3.4883282E0,1.9734852E1,2.9583902E0,-8.911748E0,-1.7343287E0,7.636824E0,-1.0265937E1,-2.3357367E1,4.6322575E0,-1.1438464E1,-2.2429497E1,-5.7481327E0,3.834648E1,-7.0480227E0,1.9865553E1,7.849351E-1,-2.9405866E0,1.4738401E0,1.4816337E1,4.425632E-1,-2.8288424E1,-4.9704084E0,2.1714278E-1,-5.5410304E0,3.0829016E1,2.1865394E0,6.485225E0,-1.8408823E1,2.478015E1,6.3276985E1,-7.079142E0,1.0731965E0,2.3458986E1,5.235297E0,-7.5037436E0,-1.0361161E0],"categories":[],"categories_nodes":[],"categories_segments":[],"categories_sizes":[],"default_left":[0,0,0,0,0,0,0,0,0,0,0,0,0,0,0,0,0,0,0,0,0,0,0,0,0,0,0,0,0,0,0,0,0,0,0,0,0,0,0,0,0,0,0,0,0,0,0,0,0,0,0,0,0,0,0,0,0,0,0,0,0,0,0,0,0,0,0,0,0,0,0,0,0,0,0,0,0,0,0,0,0,0,0,0,0,0,0,0,0,0,0,0,0,0,0],"id":18,"left_children":[1,3,5,7,9,11,13,15,17,-1,19,21,23,25,27,29,31,33,35,37,-1,39,41,43,45,47,49,51,53,55,57,59,61,63,-1,65,67,-1,-1,69,71,73,75,77,-1,79,81,83,85,-1,87,-1,89,91,93,-1,-1,-1,-1,-1,-1,-1,-1,-1,-1,-1,-1,-1,-1,-1,-1,-1,-1,-1,-1,-1,-1,-1,-1,-1,-1,-1,-1,-1,-1,-1,-1,-1,-1,-1,-1,-1,-1,-1,-1],"loss_changes":[4.132102E3,2.1233186E4,9.735992E3,1.1717775E4,1.9429766E3,9.187818E3,4.6143473E4,1.4454366E4,4.7208402E4,0E0,2.1740215E3,2.0985281E4,1.7355646E4,2.2692035E4,1.7151078E4,2.532729E4,2.2638734E4,2.868027E4,4.322922E3,6.073843E2,0E0,3.9344805E4,5.8938545E3,1.8911885E4,2.1302422E4,2.8196328E4,4.9734297E4,1.0344739E4,8.229951E3,2.112387E4,2.9650658E4,4.4405043E4,3.1202488E4,2.2390545E4,0E0,9.979121E2,4.6509062E3,0E0,0E0,1.9656676E4,6.914516E4,1.6792545E4,7.8263076E3,1.7031479E4,0E0,1.9422945E4,9.245167E3,1.7475293E4,7.8178955E3,0E0,6.9293203E3,0E0,4.4593364E3,5.7811494E3,3.7541187E2,0E0,0E0,0E0,0E0,0E0,0E0,0E0,0E0,0E0,0E0,0E0,0E0,0E0,0E0,0E0,0E0,0E0,0E0,0E0,0E0,0E0,0E0,0E0,0E0,0E0,0E0,0E0,0E0,0E0,0E0,0E0,0E0,0E0,0E0,0E0,0E0,0E0,0E0,0E0,0E0],"parents":[2147483647,0,0,1,1,2,2,3,3,4,4,5,5,6,6,7,7,8,8,10,10,11,11,12,12,13,13,14,14,15,15,16,16,17,17,18,18,19,19,21,21,22,22,23,23,24,24,25,25,26,26,27,27,28,28,29,29,30,30,31,31,32,32,33,33,35,35,36,36,39,39,40,40,41,41,42,42,43,43,45,45,46,46,47,47,48,48,50,50,52,52,53,53,54,54],"right_children":[2,4,6,8,10,12,14,16,18,-1,20,22,24,26,28,30,32,34,36,38,-1,40,42,44,46,48,50,52,54,56,58,60,62,64,-1,66,68,-1,-1,70,72,74,76,78,-1,80,82,84,86,-1,88,-1,90,92,94,-1,-1,-1,-1,-1,-1,-1,-1,-1,-1,-1,-1,-1,-1,-1,-1,-1,-1,-1,-1,-1,-1,-1,-1,-1,-1,-1,-1,-1,-1,-1,-1,-1,-1,-1,-1,-1,-1,-1,-1],"split_conditions":[3.4E1,3E0,9.6E1,3.2E1,1E0,2E0,4.1E1,2E0,9E1,-6.5506214E-1,2E0,4.1E1,6.7E1,3.9E1,5.9E1,7.4E1,1E0,2E0,9.2E1,7.6E1,-2.3157171E1,3E0,4.4E1,4E0,6.9E1,1E2,2E0,4.3E1,6.3E1,6.4E1,7.5E1,8.2E1,7.6E1,7.8E1,3.4625015E1,3.3E1,9.3E1,-2.8054628E0,-1.1268853E1,6.4E1,4E0,6.8E1,5.1E1,3.9E1,2.9117542E1,4.1E1,9.4E1,2E0,1E0,-9.090161E0,1E2,-2.321229E1,2E0,9.7E1,2E0,9.35867E-1,-5.9519763E0,2.2352722E1,3.850455E0,-3.4883282E0,1.9734852E1,2.9583902E0,-8.911748E0,-1.7343287E0,7.636824E0,-1.0265937E1,-2.3357367E1,4.6322575E0,-1.1438464E1,-2.2429497E1,-5.7481327E0,3.834648E1,-7.0480227E0,1.9865553E1,7.849351E-1,-2.9405866E0,1.4738401E0,1.4816337E1,4.425632E-1,-2.8288424E1,-4.9704084E0,2.1714278E-1,-5.5410304E0,3.0829016E1,2.1865394E0,6.485225E0,-1.8408823E1,2.478015E1,6.3276985E1,-7.079142E0,1.0731965E0,2.3458986E1,5.235297E0,-7.5037436E0,-1.0361161E0],"split_indices":[3,1,2,3,0,1,3,1,2,0,4,3,2,3,3,2,0,0,2,2,0,4,3,4,2,2,1,3,3,2,2,2,2,2,0,3,2,0,0,2,4,2,3,3,0,3,2,1,0,0,2,0,0,2,1,0,0,0,0,0,0,0,0,0,0,0,0,0,0,0,0,0,0,0,0,0,0,0,0,0,0,0,0,0,0,0,0,0,0,0,0,0,0,0,0],"split_type":[0,0,0,0,0,0,0,0,0,0,0,0,0,0,0,0,0,0,0,0,0,0,0,0,0,0,0,0,0,0,0,0,0,0,0,0,0,0,0,0,0,0,0,0,0,0,0,0,0,0,0,0,0,0,0,0,0,0,0,0,0,0,0,0,0,0,0,0,0,0,0,0,0,0,0,0,0,0,0,0,0,0,0,0,0,0,0,0,0,0,0,0,0,0,0],"sum_hessian":[1.823E3,6.75E2,1.148E3,6.67E2,8E0,1.093E3,5.5E1,5.48E2,1.19E2,1E0,7E0,2.85E2,8.08E2,1.8E1,3.7E1,4.27E2,1.21E2,1.07E2,1.2E1,5E0,2E0,1.13E2,1.72E2,4E1,7.68E2,1.1E1,7E0,2.7E1,1E1,3.55E2,7.2E1,3.2E1,8.9E1,1.05E2,2E0,7E0,5E0,2E0,3E0,1.02E2,1.1E1,2.9E1,1.43E2,3.8E1,2E0,2.3E1,7.45E2,7E0,4E0,2E0,5E0,2E0,2.5E1,7E0,3E0,3.1E2,4.5E1,8E0,6.4E1,2.2E1,1E1,2.9E1,6E1,3.3E1,7.2E1,4E0,3E0,2E0,3E0,6E0,9.6E1,4E0,7E0,4E0,2.5E1,6.8E1,7.5E1,9E0,2.9E1,3E0,2E1,7.2E2,2.5E1,3E0,4E0,1E0,3E0,4E0,1E0,1.6E1,9E0,2E0,5E0,1E0,2E0],"tree_param":{"num_deleted":"0","num_feature":"5","num_nodes":"95","size_leaf_vector":"1"}},{"base_weights":[2.4959849E-1,6.350906E-1,-5.1812124E0,3.6330247E-1,1.8873848E1,-3.247406E1,5.448371E-1,6.8112797E-1,-1.5519719E1,4.6758976E1,2.6602697E-1,-3.7701332E1,-8.3280563E-1,7.6442215E1,-5.053336E0,-1.236753E0,2.260929E0,2.4071932E1,-2.344937E1,1.1898202E1,1.2413471E2,-4.5056385E1,1.9128197E1,-1.7275417E1,-1.4738746E1,-5.623082E0,7.93494E0,1.0212655E2,-1.1649569E1,-1.6065264E1,-8.9100116E-1,7.669097E-1,-1.37330475E1,2.0077598E0,7.7626854E1,-2.060382E1,3.7117607E1,-3.682457E1,1.4591699E1,2.2193388E1,-9.025215E0,5.1874058E1,3.9865656E0,-6.3036526E1,4.0296273E0,-2.0627897E1,2.9142204E1,-2.6124252E1,6.180725E0,4.5836487E1,1.4313777E2,-8.944667E0,-2.852143E1,-3.8341029E0,8.510087E0,9.675797E-2,7.8808274E0,-5.057089E0,9.455206E0,7.497418E-1,-9.536183E0,3.1222689E1,3.7093966E0,8.468262E-1,-1.1148737E1,2.0706482E0,-1.2537196E1,8.904364E0,-6.1353683E0,-3.5453227E0,1.5196852E1,-2.1876118E1,-5.00774E0,-2.68301E-1,-9.014253E0,1.380117E0,1.9441448E1,-9.583236E0,4.462601E-1,7.625368E0,-4.844042E0,3.8994782E0,1.5734943E1,5.3838688E1,1.0573316E1,-4.8434553E0,1.4028939E0,-4.2453536E-1,-1.081918E1,4.0221076E0,-2.006156E0,7.4638696E0,-8.041493E-1],"categories":[],"categories_nodes":[],"categories_segments":[],"categories_sizes":[],"default_left":[0,0,0,0,0,0,0,0,0,0,0,0,0,0,0,0,0,0,0,0,0,0,0,0,0,0,0,0,0,0,0,0,0,0,0,0,0,0,0,0,0,0,0,0,0,0,0,0,0,0,0,0,0,0,0,0,0,0,0,0,0,0,0,0,0,0,0,0,0,0,0,0,0,0,0,0,0,0,0,0,0,0,0,0,0,0,0,0,0,0,0,0,0],"id":19,"left_children":[1,3,5,7,9,11,13,15,17,19,21,23,25,27,29,31,33,35,37,39,41,43,45,47,-1,-1,-1,49,-1,51,53,55,57,59,61,63,-1,65,67,69,-1,-1,-1,71,-1,73,75,77,79,81,83,85,87,89,91,-1,-1,-1,-1,-1,-1,-1,-1,-1,-1,-1,-1,-1,-1,-1,-1,-1,-1,-1,-1,-1,-1,-1,-1,-1,-1,-1,-1,-1,-1,-1,-1,-1,-1,-1,-1,-1,-1],"loss_changes":[3.8218977E3,8.440003E3,1.8927596E4,8.49126E3,1.2959598E4,3.4419492E3,4.3299844E4,4.9960225E3,1.0924754E4,2.5496799E4,1.453991E4,3.3528984E3,2.450378E3,2.4690938E4,4.340043E3,1.8664111E4,1.7092766E4,2.9261764E4,1.4783923E4,4.1253877E3,1.39230625E4,6.104867E3,5.378556E3,1.8219431E3,0E0,0E0,0E0,7.290215E3,0E0,2.0509634E3,1.9694138E3,7.278575E3,1.5091201E4,1.5058222E4,3.891457E3,2.0444607E3,0E0,4.8486094E3,4.837263E3,7.375001E3,0E0,0E0,0E0,6.150117E2,0E0,5.307748E2,8.454128E3,1.0116987E3,1.698973E3,1.8692188E2,5.4324883E3,1.8408223E3,1.7890103E3,2.7459355E3,3.1808179E3,0E0,0E0,0E0,0E0,0E0,0E0,0E0,0E0,0E0,0E0,0E0,0E0,0E0,0E0,0E0,0E0,0E0,0E0,0E0,0E0,0E0,0E0,0E0,0E0,0E0,0E0,0E0,0E0,0E0,0E0,0E0,0E0,0E0,0E0,0E0,0E0,0E0,0E0],"parents":[2147483647,0,0,1,1,2,2,3,3,4,4,5,5,6,6,7,7,8,8,9,9,10,10,11,11,12,12,13,13,14,14,15,15,16,16,17,17,18,18,19,19,20,20,21,21,22,22,23,23,27,27,29,29,30,30,31,31,32,32,33,33,34,34,35,35,37,37,38,38,39,39,43,43,45,45,46,46,47,47,48,48,49,49,50,50,51,51,52,52,53,53,54,54],"right_children":[2,4,6,8,10,12,14,16,18,20,22,24,26,28,30,32,34,36,38,40,42,44,46,48,-1,-1,-1,50,-1,52,54,56,58,60,62,64,-1,66,68,70,-1,-1,-1,72,-1,74,76,78,80,82,84,86,88,90,92,-1,-1,-1,-1,-1,-1,-1,-1,-1,-1,-1,-1,-1,-1,-1,-1,-1,-1,-1,-1,-1,-1,-1,-1,-1,-1,-1,-1,-1,-1,-1,-1,-1,-1,-1,-1,-1,-1],"split_conditions":[6.6E1,6.4E1,6.9E1,6.2E1,8E1,8.7E1,7E1,7.8E1,7.5E1,7.3E1,2E0,7.8E1,3E0,3E0,7.5E1,7.5E1,7E0,7.3E1,9.1E1,2E0,2E0,6.5E1,8.2E1,3E0,-1.4738746E1,-5.623082E0,7.93494E0,8.1E1,-1.1649569E1,7.3E1,8.8E1,6E1,3E0,3E0,2E0,6.3E1,3.7117607E1,2E0,9.7E1,6.8E1,-9.025215E0,5.1874058E1,3.9865656E0,8.5E1,4.0296273E0,3E0,3E0,3E0,2E0,2E0,2E0,7.7E1,6.8E1,7.6E1,9E1,9.675797E-2,7.8808274E0,-5.057089E0,9.455206E0,7.497418E-1,-9.536183E0,3.1222689E1,3.7093966E0,8.468262E-1,-1.1148737E1,2.0706482E0,-1.2537196E1,8.904364E0,-6.1353683E0,-3.5453227E0,1.5196852E1,-2.1876118E1,-5.00774E0,-2.68301E-1,-9.014253E0,1.380117E0,1.9441448E1,-9.583236E0,4.462601E-1,7.625368E0,-4.844042E0,3.8994782E0,1.5734943E1,5.3838688E1,1.0573316E1,-4.8434553E0,1.4028939E0,-4.2453536E-1,-1.081918E1,4.0221076E0,-2.006156E0,7.4638696E0,-8.041493E-1],"split_indices":[3,3,3,3,2,2,3,2,2,2,0,2,0,1,3,2,4,2,2,0,0,3,2,1,0,0,0,2,0,3,2,3,4,4,1,3,0,1,2,2,0,0,0,2,0,0,0,0,0,1,0,2,2,3,2,0,0,0,0,0,0,0,0,0,0,0,0,0,0,0,0,0,0,0,0,0,0,0,0,0,0,0,0,0,0,0,0,0,0,0,0,0,0],"split_type":[0,0,0,0,0,0,0,0,0,0,0,0,0,0,0,0,0,0,0,0,0,0,0,0,0,0,0,0,0,0,0,0,0,0,0,0,0,0,0,0,0,0,0,0,0,0,0,0,0,0,0,0,0,0,0,0,0,0,0,0,0,0,0,0,0,0,0,0,0,0,0,0,0,0,0,0,0,0,0,0,0,0,0,0,0,0,0,0,0,0,0,0,0],"sum_hessian":[1.823E3,1.703E3,1.2E2,1.679E3,2.4E1,2E1,1E2,1.647E3,3.2E1,9E0,1.5E1,1.7E1,3E0,6E0,9.4E1,7.44E2,9.03E2,5E0,2.7E1,7E0,2E0,4E0,1.1E1,7E0,1E1,2E0,1E0,5E0,1E0,2.5E1,6.9E1,6.42E2,1.02E2,9.01E2,2E0,4E0,1E0,2E1,7E0,6E0,1E0,1E0,1E0,3E0,1E0,2E0,9E0,5E0,2E0,3E0,2E0,1.7E1,8E0,5.3E1,1.6E1,6.32E2,1E1,9.6E1,6E0,8.89E2,1.2E1,1E0,1E0,2E0,2E0,2E0,1.8E1,5E0,2E0,3E0,3E0,2E0,1E0,1E0,1E0,6E0,3E0,4E0,1E0,1E0,1E0,1E0,2E0,1E0,1E0,1.1E1,6E0,2E0,6E0,7E0,4.6E1,6E0,1E1],"tree_param":{"num_deleted":"0","num_feature":"5","num_nodes":"93","size_leaf_vector":"1"}},{"base_weights":[2.5827533E-1,-1.20044365E1,4.0087992E-1,-2.4369526E1,1.1135025E1,2.5586765E0,-6.289043E-1,-1.0002901E1,-6.8477273E0,1.0933516E1,-2.3286263E1,3.0402527E0,-5.3719597E1,-1.2470089E1,-1.02541745E-1,5.889211E0,-1.4688499E1,-9.953006E0,9.577515E-1,1.47222E0,1.890335E1,-6.214904E0,-2.0644896E1,-3.9056908E1,6.8002367E0,-8.96101E-1,6.097538E0,5.349106E-1,2.1152344E0,-5.017166E0,-1.2873505E0,-1.5365025E0,5.7244196E0,-1.7746765E1,3.8828316E1,-8.326028E0,-7.510136E1,-2.4154625E1,4.6113613E1,-4.267474E-1,-1.5191342E1,4.1340805E1,1.6038697E0,-3.5996657E-2,-9.443124E0,6.554768E0,-6.60679E-2,1.35383215E1,-1.1256544E1,-9.460627E-2,2.3397163E1,3.7360406E0,-4.741567E0,-2.505919E1,1.1431733E-1,-3.5849833E-1,-2.0962418E1,-2.2087631E1,1.8296343E1,-1.2291493E0,2.770408E-1,1.3225105E1,-7.466201E0,-1.7150078E0,2.2004297E1,-4.635644E0,1.75535E0],"categories":[],"categories_nodes":[],"categories_segments":[],"categories_sizes":[],"default_left":[0,0,0,0,0,0,0,0,0,0,0,0,0,0,0,0,0,0,0,0,0,0,0,0,0,0,0,0,0,0,0,0,0,0,0,0,0,0,0,0,0,0,0,0,0,0,0,0,0,0,0,0,0,0,0,0,0,0,0,0,0,0,0,0,0,0,0],"id":20,"left_children":[1,3,5,7,9,11,13,-1,15,-1,17,19,21,23,25,27,29,-1,-1,31,33,-1,-1,35,37,39,41,-1,-1,-1,-1,43,45,47,49,51,53,55,57,59,61,63,65,-1,-1,-1,-1,-1,-1,-1,-1,-1,-1,-1,-1,-1,-1,-1,-1,-1,-1,-1,-1,-1,-1,-1,-1],"loss_changes":[3.1944756E3,6.279907E3,4.0102136E3,1.972916E3,7.818299E3,1.5963951E4,7.6151484E3,0E0,6.8570825E2,0E0,1.1534617E3,1.4374136E4,1.065582E3,2.69071E4,5.766937E3,1.7370377E0,1.2885376E1,0E0,0E0,6.763863E3,3.8662195E4,0E0,0E0,2.3743617E4,3.8839004E4,6.964711E3,2.0997111E4,0E0,0E0,0E0,0E0,1.3143705E4,2.0997332E4,2.531685E4,5.2144996E4,2.2172107E3,6.394449E3,1.8811398E4,2.9424559E4,4.994333E3,2.0063223E4,2.3011744E4,8.711006E3,0E0,0E0,0E0,0E0,0E0,0E0,0E0,0E0,0E0,0E0,0E0,0E0,0E0,0E0,0E0,0E0,0E0,0E0,0E0,0E0,0E0,0E0,0E0,0E0],"parents":[2147483647,0,0,1,1,2,2,3,3,4,4,5,5,6,6,8,8,10,10,11,11,12,12,13,13,14,14,15,15,16,16,19,19,20,20,23,23,24,24,25,25,26,26,31,31,32,32,33,33,34,34,35,35,36,36,37,37,38,38,39,39,40,40,41,41,42,42],"right_children":[2,4,6,8,10,12,14,-1,16,-1,18,20,22,24,26,28,30,-1,-1,32,34,-1,-1,36,38,40,42,-1,-1,-1,-1,44,46,48,50,52,54,56,58,60,62,64,66,-1,-1,-1,-1,-1,-1,-1,-1,-1,-1,-1,-1,-1,-1,-1,-1,-1,-1,-1,-1,-1,-1,-1,-1],"split_conditions":[4.2E1,2E0,3.3E1,1.7E1,2.3E1,2E0,1E0,-1.0002901E1,1.8E1,1.0933516E1,4E0,3.2E1,8.5E1,3.7E1,9.2E1,1E0,2E0,